{"learner":{"attributes":{"scikit_learn":"{\"_estimator_type\": \"classifier\"}"},"feature_names":["five_prime_process_signal_selected_row_count_sum_over_mature_count_sum","num_locis","Folding Energy","3' Overhang Bot","3' Overhang Top","mature_seq_on_top","miRDeep2_score","mirDeep_sensitivity","sensitivity_uncertainty","total_read_count","mature_read_count","loop_read_count","star_read_count","significant_randfold_p-value","homologous_seed_in_miRBase","consensus_mature_sequence_length","mature_5'u_or_3'u","consensus_star_sequence_length","consensus_precursor_sequence_length"],"feature_types":["float","int","float","int","int","int","float","float","float","int","int","int","int","int","int","int","int","int","int"],"gradient_booster":{"model":{"gbtree_model_param":{"num_parallel_tree":"1","num_trees":"2841"},"iteration_indptr":[0,3,6,9,12,15,18,21,24,27,30,33,36,39,42,45,48,51,54,57,60,63,66,69,72,75,78,81,84,87,90,93,96,99,102,105,108,111,114,117,120,123,126,129,132,135,138,141,144,147,150,153,156,159,162,165,168,171,174,177,180,183,186,189,192,195,198,201,204,207,210,213,216,219,222,225,228,231,234,237,240,243,246,249,252,255,258,261,264,267,270,273,276,279,282,285,288,291,294,297,300,303,306,309,312,315,318,321,324,327,330,333,336,339,342,345,348,351,354,357,360,363,366,369,372,375,378,381,384,387,390,393,396,399,402,405,408,411,414,417,420,423,426,429,432,435,438,441,444,447,450,453,456,459,462,465,468,471,474,477,480,483,486,489,492,495,498,501,504,507,510,513,516,519,522,525,528,531,534,537,540,543,546,549,552,555,558,561,564,567,570,573,576,579,582,585,588,591,594,597,600,603,606,609,612,615,618,621,624,627,630,633,636,639,642,645,648,651,654,657,660,663,666,669,672,675,678,681,684,687,690,693,696,699,702,705,708,711,714,717,720,723,726,729,732,735,738,741,744,747,750,753,756,759,762,765,768,771,774,777,780,783,786,789,792,795,798,801,804,807,810,813,816,819,822,825,828,831,834,837,840,843,846,849,852,855,858,861,864,867,870,873,876,879,882,885,888,891,894,897,900,903,906,909,912,915,918,921,924,927,930,933,936,939,942,945,948,951,954,957,960,963,966,969,972,975,978,981,984,987,990,993,996,999,1002,1005,1008,1011,1014,1017,1020,1023,1026,1029,1032,1035,1038,1041,1044,1047,1050,1053,1056,1059,1062,1065,1068,1071,1074,1077,1080,1083,1086,1089,1092,1095,1098,1101,1104,1107,1110,1113,1116,1119,1122,1125,1128,1131,1134,1137,1140,1143,1146,1149,1152,1155,1158,1161,1164,1167,1170,1173,1176,1179,1182,1185,1188,1191,1194,1197,1200,1203,1206,1209,1212,1215,1218,1221,1224,1227,1230,1233,1236,1239,1242,1245,1248,1251,1254,1257,1260,1263,1266,1269,1272,1275,1278,1281,1284,1287,1290,1293,1296,1299,1302,1305,1308,1311,1314,1317,1320,1323,1326,1329,1332,1335,1338,1341,1344,1347,1350,1353,1356,1359,1362,1365,1368,1371,1374,1377,1380,1383,1386,1389,1392,1395,1398,1401,1404,1407,1410,1413,1416,1419,1422,1425,1428,1431,1434,1437,1440,1443,1446,1449,1452,1455,1458,1461,1464,1467,1470,1473,1476,1479,1482,1485,1488,1491,1494,1497,1500,1503,1506,1509,1512,1515,1518,1521,1524,1527,1530,1533,1536,1539,1542,1545,1548,1551,1554,1557,1560,1563,1566,1569,1572,1575,1578,1581,1584,1587,1590,1593,1596,1599,1602,1605,1608,1611,1614,1617,1620,1623,1626,1629,1632,1635,1638,1641,1644,1647,1650,1653,1656,1659,1662,1665,1668,1671,1674,1677,1680,1683,1686,1689,1692,1695,1698,1701,1704,1707,1710,1713,1716,1719,1722,1725,1728,1731,1734,1737,1740,1743,1746,1749,1752,1755,1758,1761,1764,1767,1770,1773,1776,1779,1782,1785,1788,1791,1794,1797,1800,1803,1806,1809,1812,1815,1818,1821,1824,1827,1830,1833,1836,1839,1842,1845,1848,1851,1854,1857,1860,1863,1866,1869,1872,1875,1878,1881,1884,1887,1890,1893,1896,1899,1902,1905,1908,1911,1914,1917,1920,1923,1926,1929,1932,1935,1938,1941,1944,1947,1950,1953,1956,1959,1962,1965,1968,1971,1974,1977,1980,1983,1986,1989,1992,1995,1998,2001,2004,2007,2010,2013,2016,2019,2022,2025,2028,2031,2034,2037,2040,2043,2046,2049,2052,2055,2058,2061,2064,2067,2070,2073,2076,2079,2082,2085,2088,2091,2094,2097,2100,2103,2106,2109,2112,2115,2118,2121,2124,2127,2130,2133,2136,2139,2142,2145,2148,2151,2154,2157,2160,2163,2166,2169,2172,2175,2178,2181,2184,2187,2190,2193,2196,2199,2202,2205,2208,2211,2214,2217,2220,2223,2226,2229,2232,2235,2238,2241,2244,2247,2250,2253,2256,2259,2262,2265,2268,2271,2274,2277,2280,2283,2286,2289,2292,2295,2298,2301,2304,2307,2310,2313,2316,2319,2322,2325,2328,2331,2334,2337,2340,2343,2346,2349,2352,2355,2358,2361,2364,2367,2370,2373,2376,2379,2382,2385,2388,2391,2394,2397,2400,2403,2406,2409,2412,2415,2418,2421,2424,2427,2430,2433,2436,2439,2442,2445,2448,2451,2454,2457,2460,2463,2466,2469,2472,2475,2478,2481,2484,2487,2490,2493,2496,2499,2502,2505,2508,2511,2514,2517,2520,2523,2526,2529,2532,2535,2538,2541,2544,2547,2550,2553,2556,2559,2562,2565,2568,2571,2574,2577,2580,2583,2586,2589,2592,2595,2598,2601,2604,2607,2610,2613,2616,2619,2622,2625,2628,2631,2634,2637,2640,2643,2646,2649,2652,2655,2658,2661,2664,2667,2670,2673,2676,2679,2682,2685,2688,2691,2694,2697,2700,2703,2706,2709,2712,2715,2718,2721,2724,2727,2730,2733,2736,2739,2742,2745,2748,2751,2754,2757,2760,2763,2766,2769,2772,2775,2778,2781,2784,2787,2790,2793,2796,2799,2802,2805,2808,2811,2814,2817,2820,2823,2826,2829,2832,2835,2838,2841],"tree_info":[0,1,2,0,1,2,0,1,2,0,1,2,0,1,2,0,1,2,0,1,2,0,1,2,0,1,2,0,1,2,0,1,2,0,1,2,0,1,2,0,1,2,0,1,2,0,1,2,0,1,2,0,1,2,0,1,2,0,1,2,0,1,2,0,1,2,0,1,2,0,1,2,0,1,2,0,1,2,0,1,2,0,1,2,0,1,2,0,1,2,0,1,2,0,1,2,0,1,2,0,1,2,0,1,2,0,1,2,0,1,2,0,1,2,0,1,2,0,1,2,0,1,2,0,1,2,0,1,2,0,1,2,0,1,2,0,1,2,0,1,2,0,1,2,0,1,2,0,1,2,0,1,2,0,1,2,0,1,2,0,1,2,0,1,2,0,1,2,0,1,2,0,1,2,0,1,2,0,1,2,0,1,2,0,1,2,0,1,2,0,1,2,0,1,2,0,1,2,0,1,2,0,1,2,0,1,2,0,1,2,0,1,2,0,1,2,0,1,2,0,1,2,0,1,2,0,1,2,0,1,2,0,1,2,0,1,2,0,1,2,0,1,2,0,1,2,0,1,2,0,1,2,0,1,2,0,1,2,0,1,2,0,1,2,0,1,2,0,1,2,0,1,2,0,1,2,0,1,2,0,1,2,0,1,2,0,1,2,0,1,2,0,1,2,0,1,2,0,1,2,0,1,2,0,1,2,0,1,2,0,1,2,0,1,2,0,1,2,0,1,2,0,1,2,0,1,2,0,1,2,0,1,2,0,1,2,0,1,2,0,1,2,0,1,2,0,1,2,0,1,2,0,1,2,0,1,2,0,1,2,0,1,2,0,1,2,0,1,2,0,1,2,0,1,2,0,1,2,0,1,2,0,1,2,0,1,2,0,1,2,0,1,2,0,1,2,0,1,2,0,1,2,0,1,2,0,1,2,0,1,2,0,1,2,0,1,2,0,1,2,0,1,2,0,1,2,0,1,2,0,1,2,0,1,2,0,1,2,0,1,2,0,1,2,0,1,2,0,1,2,0,1,2,0,1,2,0,1,2,0,1,2,0,1,2,0,1,2,0,1,2,0,1,2,0,1,2,0,1,2,0,1,2,0,1,2,0,1,2,0,1,2,0,1,2,0,1,2,0,1,2,0,1,2,0,1,2,0,1,2,0,1,2,0,1,2,0,1,2,0,1,2,0,1,2,0,1,2,0,1,2,0,1,2,0,1,2,0,1,2,0,1,2,0,1,2,0,1,2,0,1,2,0,1,2,0,1,2,0,1,2,0,1,2,0,1,2,0,1,2,0,1,2,0,1,2,0,1,2,0,1,2,0,1,2,0,1,2,0,1,2,0,1,2,0,1,2,0,1,2,0,1,2,0,1,2,0,1,2,0,1,2,0,1,2,0,1,2,0,1,2,0,1,2,0,1,2,0,1,2,0,1,2,0,1,2,0,1,2,0,1,2,0,1,2,0,1,2,0,1,2,0,1,2,0,1,2,0,1,2,0,1,2,0,1,2,0,1,2,0,1,2,0,1,2,0,1,2,0,1,2,0,1,2,0,1,2,0,1,2,0,1,2,0,1,2,0,1,2,0,1,2,0,1,2,0,1,2,0,1,2,0,1,2,0,1,2,0,1,2,0,1,2,0,1,2,0,1,2,0,1,2,0,1,2,0,1,2,0,1,2,0,1,2,0,1,2,0,1,2,0,1,2,0,1,2,0,1,2,0,1,2,0,1,2,0,1,2,0,1,2,0,1,2,0,1,2,0,1,2,0,1,2,0,1,2,0,1,2,0,1,2,0,1,2,0,1,2,0,1,2,0,1,2,0,1,2,0,1,2,0,1,2,0,1,2,0,1,2,0,1,2,0,1,2,0,1,2,0,1,2,0,1,2,0,1,2,0,1,2,0,1,2,0,1,2,0,1,2,0,1,2,0,1,2,0,1,2,0,1,2,0,1,2,0,1,2,0,1,2,0,1,2,0,1,2,0,1,2,0,1,2,0,1,2,0,1,2,0,1,2,0,1,2,0,1,2,0,1,2,0,1,2,0,1,2,0,1,2,0,1,2,0,1,2,0,1,2,0,1,2,0,1,2,0,1,2,0,1,2,0,1,2,0,1,2,0,1,2,0,1,2,0,1,2,0,1,2,0,1,2,0,1,2,0,1,2,0,1,2,0,1,2,0,1,2,0,1,2,0,1,2,0,1,2,0,1,2,0,1,2,0,1,2,0,1,2,0,1,2,0,1,2,0,1,2,0,1,2,0,1,2,0,1,2,0,1,2,0,1,2,0,1,2,0,1,2,0,1,2,0,1,2,0,1,2,0,1,2,0,1,2,0,1,2,0,1,2,0,1,2,0,1,2,0,1,2,0,1,2,0,1,2,0,1,2,0,1,2,0,1,2,0,1,2,0,1,2,0,1,2,0,1,2,0,1,2,0,1,2,0,1,2,0,1,2,0,1,2,0,1,2,0,1,2,0,1,2,0,1,2,0,1,2,0,1,2,0,1,2,0,1,2,0,1,2,0,1,2,0,1,2,0,1,2,0,1,2,0,1,2,0,1,2,0,1,2,0,1,2,0,1,2,0,1,2,0,1,2,0,1,2,0,1,2,0,1,2,0,1,2,0,1,2,0,1,2,0,1,2,0,1,2,0,1,2,0,1,2,0,1,2,0,1,2,0,1,2,0,1,2,0,1,2,0,1,2,0,1,2,0,1,2,0,1,2,0,1,2,0,1,2,0,1,2,0,1,2,0,1,2,0,1,2,0,1,2,0,1,2,0,1,2,0,1,2,0,1,2,0,1,2,0,1,2,0,1,2,0,1,2,0,1,2,0,1,2,0,1,2,0,1,2,0,1,2,0,1,2,0,1,2,0,1,2,0,1,2,0,1,2,0,1,2,0,1,2,0,1,2,0,1,2,0,1,2,0,1,2,0,1,2,0,1,2,0,1,2,0,1,2,0,1,2,0,1,2,0,1,2,0,1,2,0,1,2,0,1,2,0,1,2,0,1,2,0,1,2,0,1,2,0,1,2,0,1,2,0,1,2,0,1,2,0,1,2,0,1,2,0,1,2,0,1,2,0,1,2,0,1,2,0,1,2,0,1,2,0,1,2,0,1,2,0,1,2,0,1,2,0,1,2,0,1,2,0,1,2,0,1,2,0,1,2,0,1,2,0,1,2,0,1,2,0,1,2,0,1,2,0,1,2,0,1,2,0,1,2,0,1,2,0,1,2,0,1,2,0,1,2,0,1,2,0,1,2,0,1,2,0,1,2,0,1,2,0,1,2,0,1,2,0,1,2,0,1,2,0,1,2,0,1,2,0,1,2,0,1,2,0,1,2,0,1,2,0,1,2,0,1,2,0,1,2,0,1,2,0,1,2,0,1,2,0,1,2,0,1,2,0,1,2,0,1,2,0,1,2,0,1,2,0,1,2,0,1,2,0,1,2,0,1,2,0,1,2,0,1,2,0,1,2,0,1,2,0,1,2,0,1,2,0,1,2,0,1,2,0,1,2,0,1,2,0,1,2,0,1,2,0,1,2,0,1,2,0,1,2,0,1,2,0,1,2,0,1,2,0,1,2,0,1,2,0,1,2,0,1,2,0,1,2,0,1,2,0,1,2,0,1,2,0,1,2,0,1,2,0,1,2,0,1,2,0,1,2,0,1,2,0,1,2,0,1,2,0,1,2,0,1,2,0,1,2,0,1,2,0,1,2,0,1,2,0,1,2,0,1,2,0,1,2,0,1,2,0,1,2,0,1,2,0,1,2,0,1,2,0,1,2,0,1,2,0,1,2,0,1,2,0,1,2,0,1,2,0,1,2,0,1,2,0,1,2,0,1,2,0,1,2,0,1,2,0,1,2,0,1,2,0,1,2,0,1,2,0,1,2,0,1,2,0,1,2,0,1,2,0,1,2,0,1,2,0,1,2,0,1,2,0,1,2,0,1,2,0,1,2,0,1,2,0,1,2,0,1,2,0,1,2,0,1,2,0,1,2,0,1,2,0,1,2,0,1,2,0,1,2,0,1,2,0,1,2,0,1,2,0,1,2,0,1,2,0,1,2,0,1,2,0,1,2,0,1,2,0,1,2,0,1,2,0,1,2,0,1,2,0,1,2,0,1,2,0,1,2,0,1,2,0,1,2,0,1,2,0,1,2,0,1,2,0,1,2,0,1,2,0,1,2,0,1,2,0,1,2,0,1,2,0,1,2,0,1,2,0,1,2,0,1,2,0,1,2,0,1,2,0,1,2,0,1,2,0,1,2,0,1,2,0,1,2,0,1,2,0,1,2,0,1,2,0,1,2,0,1,2,0,1,2,0,1,2,0,1,2,0,1,2,0,1,2,0,1,2,0,1,2,0,1,2,0,1,2,0,1,2,0,1,2,0,1,2,0,1,2,0,1,2,0,1,2,0,1,2,0,1,2,0,1,2,0,1,2,0,1,2,0,1,2,0,1,2,0,1,2,0,1,2,0,1,2,0,1,2,0,1,2,0,1,2,0,1,2,0,1,2,0,1,2,0,1,2,0,1,2,0,1,2,0,1,2,0,1,2,0,1,2,0,1,2,0,1,2,0,1,2,0,1,2,0,1,2,0,1,2,0,1,2,0,1,2,0,1,2,0,1,2,0,1,2,0,1,2,0,1,2,0,1,2,0,1,2,0,1,2,0,1,2,0,1,2,0,1,2,0,1,2,0,1,2,0,1,2,0,1,2,0,1,2,0,1,2,0,1,2,0,1,2,0,1,2,0,1,2,0,1,2,0,1,2,0,1,2,0,1,2,0,1,2,0,1,2,0,1,2,0,1,2,0,1,2,0,1,2,0,1,2,0,1,2,0,1,2,0,1,2,0,1,2,0,1,2,0,1,2,0,1,2,0,1,2,0,1,2,0,1,2,0,1,2,0,1,2,0,1,2,0,1,2,0,1,2,0,1,2,0,1,2,0,1,2,0,1,2,0,1,2,0,1,2,0,1,2,0,1,2,0,1,2,0,1,2,0,1,2,0,1,2,0,1,2,0,1,2,0,1,2,0,1,2,0,1,2,0,1,2,0,1,2,0,1,2,0,1,2,0,1,2,0,1,2,0,1,2,0,1,2,0,1,2,0,1,2,0,1,2,0,1,2,0,1,2,0,1,2,0,1,2,0,1,2,0,1,2,0,1,2,0,1,2,0,1,2,0,1,2,0,1,2,0,1,2,0,1,2,0,1,2,0,1,2,0,1,2,0,1,2,0,1,2,0,1,2,0,1,2,0,1,2,0,1,2,0,1,2,0,1,2,0,1,2,0,1,2,0,1,2,0,1,2,0,1,2,0,1,2,0,1,2,0,1,2,0,1,2,0,1,2,0,1,2,0,1,2,0,1,2,0,1,2,0,1,2,0,1,2,0,1,2,0,1,2,0,1,2,0,1,2,0,1,2,0,1,2,0,1,2,0,1,2,0,1,2,0,1,2,0,1,2,0,1,2,0,1,2,0,1,2,0,1,2,0,1,2,0,1,2,0,1,2,0,1,2,0,1,2,0,1,2,0,1,2,0,1,2,0,1,2,0,1,2,0,1,2,0,1,2,0,1,2,0,1,2,0,1,2,0,1,2,0,1,2,0,1,2,0,1,2,0,1,2,0,1,2,0,1,2,0,1,2,0,1,2,0,1,2,0,1,2,0,1,2,0,1,2,0,1,2,0,1,2,0,1,2,0,1,2,0,1,2,0,1,2,0,1,2,0,1,2,0,1,2,0,1,2,0,1,2,0,1,2,0,1,2,0,1,2,0,1,2,0,1,2,0,1,2,0,1,2,0,1,2,0,1,2,0,1,2,0,1,2,0,1,2,0,1,2,0,1,2,0,1,2,0,1,2,0,1,2,0,1,2,0,1,2,0,1,2,0,1,2,0,1,2,0,1,2,0,1,2,0,1,2,0,1,2,0,1,2,0,1,2,0,1,2,0,1,2,0,1,2,0,1,2,0,1,2,0,1,2,0,1,2,0,1,2,0,1,2,0,1,2,0,1,2,0,1,2,0,1,2,0,1,2,0,1,2,0,1,2,0,1,2,0,1,2,0,1,2,0,1,2,0,1,2,0,1,2,0,1,2,0,1,2,0,1,2,0,1,2,0,1,2,0,1,2,0,1,2,0,1,2,0,1,2,0,1,2,0,1,2,0,1,2,0,1,2,0,1,2,0,1,2,0,1,2,0,1,2,0,1,2,0,1,2,0,1,2,0,1,2,0,1,2,0,1,2,0,1,2,0,1,2,0,1,2,0,1,2,0,1,2,0,1,2,0,1,2,0,1,2,0,1,2,0,1,2,0,1,2,0,1,2,0,1,2,0,1,2,0,1,2,0,1,2,0,1,2,0,1,2,0,1,2,0,1,2,0,1,2],"trees":[{"base_weights":[2.340896E-1,4.971907E-1,-5.8547705E-1,-4.5724714E-1,6.316532E-1,-7.074216E-1,-4.6394195E-2,-2.3057831E-2,1.1393623E-2,3.0448187E-2,-3.156248E-2,-0E0,-3.022256E-2,4.2784564E-2,-2.040791E-2],"categories":[],"categories_nodes":[],"categories_segments":[],"categories_sizes":[],"default_left":[0,0,1,0,0,0,0,0,0,0,0,0,0,0,0],"id":0,"left_children":[1,3,5,7,9,11,13,-1,-1,-1,-1,-1,-1,-1,-1],"loss_changes":[1.0254383E2,4.620376E1,7.5888443E0,2.9213762E0,3.978061E1,6.768379E-1,9.9258175E0,0E0,0E0,0E0,0E0,0E0,0E0,0E0,0E0],"parents":[2147483647,0,0,1,1,2,2,3,3,4,4,5,5,6,6],"right_children":[2,4,6,8,10,12,14,-1,-1,-1,-1,-1,-1,-1,-1],"split_conditions":[1.0075E4,2.1E1,9E1,2.8E1,1E0,-3.63E1,1.01E2,-2.3057831E-2,1.1393623E-2,3.0448187E-2,-3.156248E-2,-0E0,-3.022256E-2,4.2784564E-2,-2.040791E-2],"split_indices":[9,15,7,12,14,2,12,0,0,0,0,0,0,0,0],"split_type":[0,0,0,0,0,0,0,0,0,0,0,0,0,0,0],"sum_hessian":[4.7555554E2,3.5999997E2,1.1555555E2,4.4444443E1,3.1555554E2,9.422221E1,2.1333332E1,3.9555553E1,4.8888884E0,2.9599997E2,1.9555553E1,1.3333333E0,9.2888885E1,6.222222E0,1.5111111E1],"tree_param":{"num_deleted":"0","num_feature":"19","num_nodes":"15","size_leaf_vector":"1"}},{"base_weights":[2.915272E-2,-5.636532E-1,9.03104E-1,-5.9056675E-1,2.1314387E-1,4.267942E-1,1.3050655E0,-2.913122E-2,6.312991E-2,5.2508757E-2,-2.3600433E-2,9.431761E-3,6.313441E-2,1.1393623E-2,5.714014E-2],"categories":[],"categories_nodes":[],"categories_segments":[],"categories_sizes":[],"default_left":[0,0,0,0,0,0,0,0,0,0,0,0,0,0,0],"id":1,"left_children":[1,3,5,7,9,11,13,-1,-1,-1,-1,-1,-1,-1,-1],"loss_changes":[2.426992E2,5.8394012E0,3.6230972E1,5.698239E1,7.472168E0,1.8832531E1,5.4650116E0,0E0,0E0,0E0,0E0,0E0,0E0,0E0,0E0],"parents":[2147483647,0,0,1,1,2,2,3,3,4,4,5,5,6,6],"right_children":[2,4,6,8,10,12,14,-1,-1,-1,-1,-1,-1,-1,-1],"split_conditions":[9.15E2,1.83E2,1.1374E4,1E0,2.7E1,1E0,2.1E1,-2.913122E-2,6.312991E-2,5.2508757E-2,-2.3600433E-2,9.431761E-3,6.313441E-2,1.1393623E-2,5.714014E-2],"split_indices":[10,12,10,14,1,14,17,0,0,0,0,0,0,0,0],"split_type":[0,0,0,0,0,0,0,0,0,0,0,0,0,0,0],"sum_hessian":[4.6844443E2,2.7911108E2,1.8933333E2,2.6977777E2,9.333333E0,8.6666664E1,1.02666664E2,2.573333E2,1.2444444E1,3.9999998E0,5.333333E0,7.2888885E1,1.3777777E1,4.8888884E0,9.777777E1],"tree_param":{"num_deleted":"0","num_feature":"19","num_nodes":"15","size_leaf_vector":"1"}},{"base_weights":[-2.6678413E-1,7.1131057E-1,-3.867664E-1,1.0350174E0,-4.7898373E-1,1.7297533E-1,-5.687141E-1,4.9783394E-2,-3.1426672E-2,2.505128E-2,-3.1531636E-2,2.1878393E-2,-1.4438864E-2,-2.6967427E-2,-1.1166325E-3],"categories":[],"categories_nodes":[],"categories_segments":[],"categories_sizes":[],"default_left":[0,0,0,0,0,0,0,0,0,0,0,0,0,0,0],"id":2,"left_children":[1,3,5,7,9,11,13,-1,-1,-1,-1,-1,-1,-1,-1],"loss_changes":[5.585816E1,2.004368E1,4.3186226E1,1.0712677E1,3.220754E0,1.8589106E1,1.2411865E1,0E0,0E0,0E0,0E0,0E0,0E0,0E0,0E0],"parents":[2147483647,0,0,1,1,2,2,3,3,4,4,5,5,6,6],"right_children":[2,4,6,8,10,12,14,-1,-1,-1,-1,-1,-1,-1,-1],"split_conditions":[2.1E1,2.8E1,7.246892E-1,1E0,5.4478675E-1,3.6E1,6.7E1,4.9783394E-2,-3.1426672E-2,2.505128E-2,-3.1531636E-2,2.1878393E-2,-1.4438864E-2,-2.6967427E-2,-1.1166325E-3],"split_indices":[15,12,0,14,0,12,18,0,0,0,0,0,0,0,0],"split_type":[0,0,0,0,0,0,0,0,0,0,0,0,0,0,0],"sum_hessian":[4.7599997E2,5.1999996E1,4.2399997E2,4.0888885E1,1.1111111E1,1.0399999E2,3.1999997E2,3.7777775E1,3.111111E0,2.222222E0,8.888888E0,6.2222218E1,4.1777775E1,2.8266666E2,3.7333332E1],"tree_param":{"num_deleted":"0","num_feature":"19","num_nodes":"15","size_leaf_vector":"1"}},{"base_weights":[2.1773495E-1,4.5843652E-1,-6.097911E-1,5.350736E-1,-3.1079324E-2,-6.8584347E-1,-6.710239E-2,2.6148397E-2,-1.4147819E-2,4.393257E-4,-2.9305084E-2,4.0987242E-2,-2.2054091E-2],"categories":[],"categories_nodes":[],"categories_segments":[],"categories_sizes":[],"default_left":[0,0,1,0,0,0,0,0,0,0,0,0,0],"id":3,"left_children":[1,3,5,7,-1,9,11,-1,-1,-1,-1,-1,-1],"loss_changes":[9.527591E1,3.397358E1,4.440319E0,2.6019684E1,0E0,6.6163254E-1,6.296755E0,0E0,0E0,0E0,0E0,0E0,0E0],"parents":[2147483647,0,0,1,1,2,2,3,3,5,5,6,6],"right_children":[2,4,6,8,-1,10,12,-1,-1,-1,-1,-1,-1],"split_conditions":[1.0075E4,1E0,9.1E1,7.6E1,-3.1079324E-2,6.6E1,4.9E1,2.6148397E-2,-1.4147819E-2,4.393257E-4,-2.9305084E-2,4.0987242E-2,-2.2054091E-2],"split_indices":[9,14,7,18,0,1,12,0,0,0,0,0,0],"split_type":[0,0,0,0,0,0,0,0,0,0,0,0,0],"sum_hessian":[4.783263E2,3.7055634E2,1.0776997E2,3.482572E2,2.2299131E1,9.4506516E1,1.326346E1,3.1704858E2,3.1208595E1,1.3169539E0,9.318956E1,4.037813E0,9.225647E0],"tree_param":{"num_deleted":"0","num_feature":"19","num_nodes":"13","size_leaf_vector":"1"}},{"base_weights":[3.6293916E-2,-5.4031706E-1,8.9725983E-1,-6.276417E-1,-2.5680214E-1,3.3185238E-1,1.2633806E0,-3.039297E-2,-2.2625599E-2,-2.4767276E-2,-2.2986901E-3,-1.1622651E-2,2.1363715E-2,5.4513823E-2,-1.2960336E-2],"categories":[],"categories_nodes":[],"categories_segments":[],"categories_sizes":[],"default_left":[0,0,0,0,0,0,0,0,0,0,0,0,0,0,0],"id":4,"left_children":[1,3,5,7,9,11,13,-1,-1,-1,-1,-1,-1,-1,-1],"loss_changes":[2.3769086E2,7.089592E0,3.9737717E1,1.8493042E0,4.5184283E0,8.050538E0,5.677307E0,0E0,0E0,0E0,0E0,0E0,0E0,0E0,0E0],"parents":[2147483647,0,0,1,1,2,2,3,3,4,4,5,5,6,6],"right_children":[2,4,6,8,10,12,14,-1,-1,-1,-1,-1,-1,-1,-1],"split_conditions":[1.355E3,2.6E2,9.404E3,-2.57E1,-2.7E1,-2.8E1,5E0,-3.039297E-2,-2.2625599E-2,-2.4767276E-2,-2.2986901E-3,-1.1622651E-2,2.1363715E-2,5.4513823E-2,-1.2960336E-2],"split_indices":[9,9,10,2,2,2,3,0,0,0,0,0,0,0,0],"split_type":[0,0,0,0,0,0,0,0,0,0,0,0,0,0,0],"sum_hessian":[4.787764E2,2.8673303E2,1.9204337E2,2.1918408E2,6.754896E1,7.549194E1,1.1655142E2,1.0742564E2,1.1175845E2,2.5585123E1,4.1963837E1,1.6892237E1,5.859971E1,1.1430695E2,2.2444668E0],"tree_param":{"num_deleted":"0","num_feature":"19","num_nodes":"15","size_leaf_vector":"1"}},{"base_weights":[-2.671125E-1,2.8481248E-1,-4.484848E-1,5.90346E-1,-3.6510634E-1,5.0406873E-1,-5.554553E-1,2.7509287E-2,-3.1280138E-2,3.245937E-2,-1.9061368E-2,3.376081E-2,-2.5661746E-2,-2.3998234E-2,4.8179034E-2],"categories":[],"categories_nodes":[],"categories_segments":[],"categories_sizes":[],"default_left":[0,0,0,0,0,0,0,0,0,0,0,0,0,0,0],"id":5,"left_children":[1,3,5,7,9,11,13,-1,-1,-1,-1,-1,-1,-1,-1],"loss_changes":[4.6860847E1,2.299092E1,3.5902695E1,6.5943737E0,3.6744804E0,1.1783389E1,7.713051E0,0E0,0E0,0E0,0E0,0E0,0E0,0E0,0E0],"parents":[2147483647,0,0,1,1,2,2,3,3,4,4,5,5,6,6],"right_children":[2,4,6,8,10,12,14,-1,-1,-1,-1,-1,-1,-1,-1],"split_conditions":[7.261471E-1,5.8E1,2.1E1,1E0,1.7E0,4.1E1,7E0,2.7509287E-2,-3.1280138E-2,3.245937E-2,-1.9061368E-2,3.376081E-2,-2.5661746E-2,-2.3998234E-2,4.8179034E-2],"split_indices":[0,12,15,14,6,1,4,0,0,0,0,0,0,0,0],"split_type":[0,0,0,0,0,0,0,0,0,0,0,0,0,0,0],"sum_hessian":[4.6810007E2,1.1576478E2,3.523353E2,7.875641E1,3.700837E1,3.5561623E1,3.1677368E2,7.522106E1,3.535353E0,2.6366377E0,3.437173E1,2.8070333E1,7.491288E0,3.1413123E2,2.6424534E0],"tree_param":{"num_deleted":"0","num_feature":"19","num_nodes":"15","size_leaf_vector":"1"}},{"base_weights":[2.27257E-1,4.5689246E-1,-5.713295E-1,-4.3772522E-1,5.819811E-1,-6.8193686E-1,-6.481124E-2,-1.3383975E-2,-3.101623E-2,3.246937E-2,1.0318171E-2,8.55697E-4,-2.9172113E-2,3.981506E-2,-2.1341091E-2],"categories":[],"categories_nodes":[],"categories_segments":[],"categories_sizes":[],"default_left":[0,0,1,0,0,0,0,0,0,0,0,0,0,0,0],"id":6,"left_children":[1,3,5,7,9,11,13,-1,-1,-1,-1,-1,-1,-1,-1],"loss_changes":[8.8173325E1,4.1793037E1,6.0078583E0,1.6297569E0,2.0851196E1,6.6882324E-1,8.595432E0,0E0,0E0,0E0,0E0,0E0,0E0,0E0,0E0],"parents":[2147483647,0,0,1,1,2,2,3,3,4,4,5,5,6,6],"right_children":[2,4,6,8,10,12,14,-1,-1,-1,-1,-1,-1,-1,-1],"split_conditions":[1.0075E4,2.1E1,9E1,7.6E1,3.46E2,-3.63E1,1.01E2,-1.3383975E-2,-3.101623E-2,3.246937E-2,1.0318171E-2,8.55697E-4,-2.9172113E-2,3.981506E-2,-2.1341091E-2],"split_indices":[9,15,7,18,9,2,12,0,0,0,0,0,0,0,0],"split_type":[0,0,0,0,0,0,0,0,0,0,0,0,0,0,0],"sum_hessian":[4.8081372E2,3.73443E2,1.07370705E2,4.5800034E1,3.2764297E2,8.8109535E1,1.9261175E1,3.2705265E1,1.3094767E1,2.0991725E2,1.17725716E2,1.3078451E0,8.680169E1,5.8538566E0,1.3407318E1],"tree_param":{"num_deleted":"0","num_feature":"19","num_nodes":"15","size_leaf_vector":"1"}},{"base_weights":[4.838303E-2,-5.1744926E-1,8.550693E-1,-5.710376E-1,-1.2871771E-2,3.4440854E-1,1.1843084E0,-2.866881E-2,5.9560973E-2,3.2387994E-2,-1.8753208E-2,7.273928E-3,5.7726197E-2,5.528133E-3,5.306712E-2],"categories":[],"categories_nodes":[],"categories_segments":[],"categories_sizes":[],"default_left":[0,0,0,0,0,0,0,0,0,0,0,0,0,0,0],"id":7,"left_children":[1,3,5,7,9,11,13,-1,-1,-1,-1,-1,-1,-1,-1],"loss_changes":[2.1012906E2,7.309822E0,3.1892776E1,5.3229637E1,8.786047E0,1.3095276E1,9.179092E0,0E0,0E0,0E0,0E0,0E0,0E0,0E0,0E0],"parents":[2147483647,0,0,1,1,2,2,3,3,4,4,5,5,6,6],"right_children":[2,4,6,8,10,12,14,-1,-1,-1,-1,-1,-1,-1,-1],"split_conditions":[1.355E3,6.1E2,1.0075E4,1E0,2E1,1E0,2.1E1,-2.866881E-2,5.9560973E-2,3.2387994E-2,-1.8753208E-2,7.273928E-3,5.7726197E-2,5.528133E-3,5.306712E-2],"split_indices":[9,9,9,14,1,14,17,0,0,0,0,0,0,0,0],"split_type":[0,0,0,0,0,0,0,0,0,0,0,0,0,0,0],"sum_hessian":[4.6034375E2,2.705563E2,1.8978748E2,2.4456227E2,2.5994019E1,7.441032E1,1.1537715E2,2.3176784E2,1.2794434E1,9.247297E0,1.6746721E1,6.3755356E1,1.0654964E1,7.7440577E0,1.07633095E2],"tree_param":{"num_deleted":"0","num_feature":"19","num_nodes":"15","size_leaf_vector":"1"}},{"base_weights":[-2.7678216E-1,-3.8854402E-1,5.9663177E-1,1.593867E-1,-5.4980534E-1,8.376765E-1,-3.605682E-1,1.2884538E-2,-1.9239401E-2,5.4922085E-2,-2.4985656E-2,5.0151013E-2,1.6216237E-2,1.617813E-2,-3.1063253E-2],"categories":[],"categories_nodes":[],"categories_segments":[],"categories_sizes":[],"default_left":[0,0,0,0,0,0,0,0,0,0,0,0,0,0,0],"id":8,"left_children":[1,3,5,7,9,11,13,-1,-1,-1,-1,-1,-1,-1,-1],"loss_changes":[4.510994E1,3.620748E1,1.2099743E1,8.409761E0,2.5482643E1,6.676279E0,2.9624538E0,0E0,0E0,0E0,0E0,0E0,0E0,0E0,0E0],"parents":[2147483647,0,0,1,1,2,2,3,3,4,4,5,5,6,6],"right_children":[2,4,6,8,10,12,14,-1,-1,-1,-1,-1,-1,-1,-1],"split_conditions":[6.9E1,7.0689654E-1,2.8E1,7.096E2,4.9E1,9.6744186E-1,7.209302E-1,1.2884538E-2,-1.9239401E-2,5.4922085E-2,-2.4985656E-2,5.0151013E-2,1.6216237E-2,1.617813E-2,-3.1063253E-2],"split_indices":[18,0,12,6,18,0,0,0,0,0,0,0,0,0,0],"split_type":[0,0,0,0,0,0,0,0,0,0,0,0,0,0,0],"sum_hessian":[4.621376E2,4.0972253E2,5.2415066E1,9.315141E1,3.1657114E2,4.1879704E1,1.0535364E1,7.526972E1,1.7881693E1,7.2397428E0,3.093314E2,2.3513386E1,1.8366318E1,3.531687E0,7.003677E0],"tree_param":{"num_deleted":"0","num_feature":"19","num_nodes":"15","size_leaf_vector":"1"}},{"base_weights":[2.177005E-1,4.344149E-1,-5.582987E-1,-4.2196292E-1,5.4865086E-1,-2.5184408E-1,-6.665577E-1,-2.1286301E-2,7.710861E-3,3.0940304E-2,1.00257285E-2,-2.5434995E-2,1.50542455E-2,-8.224941E-3,-2.9099066E-2],"categories":[],"categories_nodes":[],"categories_segments":[],"categories_sizes":[],"default_left":[0,0,0,0,0,0,0,0,0,0,0,0,0,0,0],"id":9,"left_children":[1,3,5,7,9,11,13,-1,-1,-1,-1,-1,-1,-1,-1],"loss_changes":[8.0753365E1,3.6724503E1,3.4678154E0,2.2333994E0,1.91212E1,5.8784266E0,8.789787E-1,0E0,0E0,0E0,0E0,0E0,0E0,0E0,0E0],"parents":[2147483647,0,0,1,1,2,2,3,3,4,4,5,5,6,6],"right_children":[2,4,6,8,10,12,14,-1,-1,-1,-1,-1,-1,-1,-1],"split_conditions":[1.0075E4,2.1E1,1.01E2,2.8E1,3.46E2,1E0,-2.97E1,-2.1286301E-2,7.710861E-3,3.0940304E-2,1.00257285E-2,-2.5434995E-2,1.50542455E-2,-8.224941E-3,-2.9099066E-2],"split_indices":[9,15,12,12,9,13,2,0,0,0,0,0,0,0,0],"split_type":[0,0,0,0,0,0,0,0,0,0,0,0,0,0,0],"sum_hessian":[4.8018994E2,3.753731E2,1.0481684E2,4.416816E1,3.3120496E2,2.7388477E1,7.742837E1,3.8830387E1,5.337771E0,2.0714711E2,1.24057846E2,1.7368864E1,1.0019612E1,3.824533E0,7.3603836E1],"tree_param":{"num_deleted":"0","num_feature":"19","num_nodes":"15","size_leaf_vector":"1"}},{"base_weights":[3.1509265E-2,-5.117902E-1,8.2645065E-1,-6.221168E-1,5.7596497E-2,2.8499216E-1,1.1645052E0,-2.9580642E-2,-1.5505386E-2,5.1484206E-3,5.5340864E-2,6.2121445E-4,5.0640024E-2],"categories":[],"categories_nodes":[],"categories_segments":[],"categories_sizes":[],"default_left":[0,0,0,0,0,0,0,0,0,0,0,0,0],"id":10,"left_children":[1,3,5,7,-1,9,11,-1,-1,-1,-1,-1,-1],"loss_changes":[2.0074571E2,5.723873E1,3.452585E1,5.30159E0,0E0,1.2134333E1,5.0419006E0,0E0,0E0,0E0,0E0,0E0,0E0],"parents":[2147483647,0,0,1,1,2,2,3,3,5,5,6,6],"right_children":[2,4,6,8,-1,10,12,-1,-1,-1,-1,-1,-1],"split_conditions":[1.355E3,1E0,1.0075E4,2.6E2,5.7596497E-2,1E0,5.3E1,-2.9580642E-2,-1.5505386E-2,5.1484206E-3,5.5340864E-2,6.2121445E-4,5.0640024E-2],"split_indices":[9,14,9,9,0,14,18,0,0,0,0,0,0],"split_type":[0,0,0,0,0,0,0,0,0,0,0,0,0],"sum_hessian":[4.6479404E2,2.7608972E2,1.8870432E2,2.6078696E2,1.5302763E1,7.254468E1,1.16159645E2,1.9815488E2,6.263208E1,6.2648106E1,9.896574E0,3.710132E0,1.1244951E2],"tree_param":{"num_deleted":"0","num_feature":"19","num_nodes":"13","size_leaf_vector":"1"}},{"base_weights":[-2.5556877E-1,6.3770646E-1,-3.7394384E-1,8.862297E-1,-5.199697E-1,1.3485743E-1,-5.407635E-1,4.32454E-2,1.7221022E-2,6.034797E-3,-3.0483974E-2,2.133516E-2,-1.53273195E-2,-1.6226495E-2,-2.9339116E-2],"categories":[],"categories_nodes":[],"categories_segments":[],"categories_sizes":[],"default_left":[0,0,0,0,0,0,0,0,0,0,0,0,0,0,0],"id":11,"left_children":[1,3,5,7,9,11,13,-1,-1,-1,-1,-1,-1,-1,-1],"loss_changes":[4.860987E1,1.5479E1,3.4459938E1,2.9556541E0,1.2903137E0,1.8582256E1,7.3967667E0,0E0,0E0,0E0,0E0,0E0,0E0,0E0,0E0],"parents":[2147483647,0,0,1,1,2,2,3,3,4,4,5,5,6,6],"right_children":[2,4,6,8,10,12,14,-1,-1,-1,-1,-1,-1,-1,-1],"split_conditions":[2.1E1,2.859E3,7.261471E-1,9.2E1,2E1,2.9E1,2.1E1,4.32454E-2,1.7221022E-2,6.034797E-3,-3.0483974E-2,2.133516E-2,-1.53273195E-2,-1.6226495E-2,-2.9339116E-2],"split_indices":[15,9,0,7,17,12,12,0,0,0,0,0,0,0,0],"split_type":[0,0,0,0,0,0,0,0,0,0,0,0,0,0,0],"sum_hessian":[4.5972217E2,5.378169E1,4.059405E2,4.4284313E1,9.497375E0,1.0021712E2,3.0572336E2,3.4192787E1,1.0091525E1,2.2209172E0,7.2764573E0,5.743492E1,4.2782196E1,1.5306514E2,1.5265823E2],"tree_param":{"num_deleted":"0","num_feature":"19","num_nodes":"15","size_leaf_vector":"1"}},{"base_weights":[1.8439566E-1,3.9974788E-1,-5.4683644E-1,-4.246843E-1,5.151969E-1,-6.357284E-1,8.781616E-2,-9.352301E-3,-2.8545732E-2,2.5128212E-2,-3.0794846E-2,-2.7912963E-2,-1.4229434E-2,5.0496336E-2,-2.0466937E-2],"categories":[],"categories_nodes":[],"categories_segments":[],"categories_sizes":[],"default_left":[0,0,1,0,0,1,0,0,0,0,0,0,0,0,0],"id":12,"left_children":[1,3,5,7,9,11,13,-1,-1,-1,-1,-1,-1,-1,-1],"loss_changes":[7.5445175E1,3.5229435E1,6.1543846E0,2.3214598E0,3.2948044E1,7.585983E-1,8.53744E0,0E0,0E0,0E0,0E0,0E0,0E0,0E0,0E0],"parents":[2147483647,0,0,1,1,2,2,3,3,4,4,5,5,6,6],"right_children":[2,4,6,8,10,12,14,-1,-1,-1,-1,-1,-1,-1,-1],"split_conditions":[1.0075E4,2.1E1,9.1E1,6.1E1,1E0,9E1,1.01E2,-9.352301E-3,-2.8545732E-2,2.5128212E-2,-3.0794846E-2,-2.7912963E-2,-1.4229434E-2,5.0496336E-2,-2.0466937E-2],"split_indices":[9,15,7,18,14,7,12,0,0,0,0,0,0,0,0],"split_type":[0,0,0,0,0,0,0,0,0,0,0,0,0,0,0],"sum_hessian":[4.791046E2,3.701177E2,1.089869E2,4.5451336E1,3.2466635E2,9.5611206E1,1.3375702E1,2.5266117E1,2.0185219E1,3.0476572E2,1.9900648E1,8.76284E1,7.9827967E0,4.5600414E0,8.8156595E0],"tree_param":{"num_deleted":"0","num_feature":"19","num_nodes":"15","size_leaf_vector":"1"}},{"base_weights":[4.2820383E-2,-5.150438E-1,7.420862E-1,-6.180933E-1,5.5891924E-2,2.614715E-1,1.0925478E0,-2.8226787E-2,-9.955397E-3,3.2068328E-3,5.3726956E-2,5.62758E-3,4.8266105E-2],"categories":[],"categories_nodes":[],"categories_segments":[],"categories_sizes":[],"default_left":[0,0,0,0,0,0,0,0,0,0,0,0,0],"id":13,"left_children":[1,3,5,7,-1,9,11,-1,-1,-1,-1,-1,-1],"loss_changes":[1.8651578E2,5.047776E1,3.5724503E1,4.9990463E0,0E0,1.6806528E1,6.273636E0,0E0,0E0,0E0,0E0,0E0,0E0],"parents":[2147483647,0,0,1,1,2,2,3,3,5,5,6,6],"right_children":[2,4,6,8,-1,10,12,-1,-1,-1,-1,-1,-1],"split_conditions":[9.15E2,1E0,9.404E3,5.6E1,5.5891924E-2,1E0,2.1E1,-2.8226787E-2,-9.955397E-3,3.2068328E-3,5.3726956E-2,5.62758E-3,4.8266105E-2],"split_indices":[10,14,10,12,0,14,17,0,0,0,0,0,0],"split_type":[0,0,0,0,0,0,0,0,0,0,0,0,0],"sum_hessian":[4.781181E2,2.659406E2,2.1217747E2,2.5185834E2,1.4082282E1,8.948837E1,1.226891E2,2.21588E2,3.0270336E1,7.567242E1,1.3815953E1,6.4864736E0,1.1620263E2],"tree_param":{"num_deleted":"0","num_feature":"19","num_nodes":"13","size_leaf_vector":"1"}},{"base_weights":[-2.2516993E-1,6.311262E-1,-3.4252185E-1,8.602828E-1,-4.2780375E-1,-1.826475E-1,-6.6839993E-1,4.4044327E-2,1.725324E-2,2.4585227E-2,-3.0467901E-2,1.2454269E-2,-1.9153193E-2,-6.198367E-3,-2.8728755E-2],"categories":[],"categories_nodes":[],"categories_segments":[],"categories_sizes":[],"default_left":[0,0,0,0,0,0,0,0,0,0,0,0,0,0,0],"id":14,"left_children":[1,3,5,7,9,11,13,-1,-1,-1,-1,-1,-1,-1,-1],"loss_changes":[4.641496E1,1.3512905E1,2.1156895E1,3.8095665E0,2.9616077E0,3.548053E1,9.465828E-1,0E0,0E0,0E0,0E0,0E0,0E0,0E0,0E0],"parents":[2147483647,0,0,1,1,2,2,3,3,4,4,5,5,6,6],"right_children":[2,4,6,8,10,12,14,-1,-1,-1,-1,-1,-1,-1,-1],"split_conditions":[2.1E1,2.8E1,7.096E2,9.1E1,1E0,7.7160496E-1,3.957219E-1,4.4044327E-2,1.725324E-2,2.4585227E-2,-3.0467901E-2,1.2454269E-2,-1.9153193E-2,-6.198367E-3,-2.8728755E-2],"split_indices":[15,12,6,7,16,0,0,0,0,0,0,0,0,0,0],"split_type":[0,0,0,0,0,0,0,0,0,0,0,0,0,0,0],"sum_hessian":[4.6191724E2,5.5662308E1,4.0625494E2,4.576797E1,9.894336E0,2.7256876E2,1.3368616E2,3.2405525E1,1.3362445E1,2.2292376E0,7.665098E0,9.881686E1,1.737519E2,3.4455223E0,1.3024063E2],"tree_param":{"num_deleted":"0","num_feature":"19","num_nodes":"15","size_leaf_vector":"1"}},{"base_weights":[2.036748E-1,4.037344E-1,-5.3159153E-1,4.8007646E-1,-3.0170854E-2,-6.520717E-1,-8.209084E-3,-1.369149E-2,2.4125142E-2,4.0508276E-3,-2.79347E-2,2.703647E-2,-1.403908E-2],"categories":[],"categories_nodes":[],"categories_segments":[],"categories_sizes":[],"default_left":[0,0,1,0,0,0,0,0,0,0,0,0,0],"id":15,"left_children":[1,3,5,7,-1,9,11,-1,-1,-1,-1,-1,-1],"loss_changes":[7.1733154E1,3.2780018E1,6.5700264E0,2.6799751E1,0E0,7.152214E-1,4.126463E0,0E0,0E0,0E0,0E0,0E0,0E0],"parents":[2147483647,0,0,1,1,2,2,3,3,5,5,6,6],"right_children":[2,4,6,8,-1,10,12,-1,-1,-1,-1,-1,-1],"split_conditions":[1.0075E4,1E0,9E1,2.1E1,-3.0170854E-2,-3.57E1,2.5307E4,-1.369149E-2,2.4125142E-2,4.0508276E-3,-2.79347E-2,2.703647E-2,-1.403908E-2],"split_indices":[9,14,7,15,0,2,9,0,0,0,0,0,0],"split_type":[0,0,0,0,0,0,0,0,0,0,0,0,0],"sum_hessian":[4.8766147E2,3.8336584E2,1.0429564E2,3.5891357E2,2.4452246E1,8.4763504E1,1.9532131E1,3.7054565E1,3.21859E2,1.2345808E0,8.352892E1,6.5002346E0,1.3031897E1],"tree_param":{"num_deleted":"0","num_feature":"19","num_nodes":"13","size_leaf_vector":"1"}},{"base_weights":[4.1723143E-2,-3.2860094E-1,8.132021E-1,-4.3324128E-1,5.3141255E-2,1.8856075E-1,9.47955E-1,-2.542315E-2,-9.791635E-4,5.0792556E-2,-6.3866107E-3,-2.1105641E-2,4.1935947E-2],"categories":[],"categories_nodes":[],"categories_segments":[],"categories_sizes":[],"default_left":[0,0,0,0,0,0,0,0,0,0,0,0,0],"id":16,"left_children":[1,3,5,7,-1,9,11,-1,-1,-1,-1,-1,-1],"loss_changes":[1.3434174E2,5.286154E1,1.2825356E1,2.0816753E1,0E0,9.383869E0,8.68222E0,0E0,0E0,0E0,0E0,0E0,0E0],"parents":[2147483647,0,0,1,1,2,2,3,3,5,5,6,6],"right_children":[2,4,6,8,-1,10,12,-1,-1,-1,-1,-1,-1],"split_conditions":[6.8E1,1E0,2.4E1,1.6E1,5.3141255E-2,7.3E1,-3.41E1,-2.542315E-2,-9.791635E-4,5.0792556E-2,-6.3866107E-3,-2.1105641E-2,4.1935947E-2],"split_indices":[1,14,12,1,0,7,2,0,0,0,0,0,0],"split_type":[0,0,0,0,0,0,0,0,0,0,0,0,0],"sum_hessian":[4.7020233E2,3.1769235E2,1.5250996E2,2.9808707E2,1.9605297E1,2.707696E1,1.2543301E2,2.1055873E2,8.7528336E1,6.791074E0,2.0285887E1,3.992496E0,1.2144051E2],"tree_param":{"num_deleted":"0","num_feature":"19","num_nodes":"13","size_leaf_vector":"1"}},{"base_weights":[-2.3828158E-1,-2.4562454E-2,-5.7451946E-1,5.1014954E-1,-2.0266765E-1,-1.9267108E-1,-6.4006823E-1,3.3797126E-2,-2.8949338E-3,2.9821178E-2,-1.2846761E-2,1.4604188E-2,-2.708053E-2,-2.770454E-2,2.1415101E-2],"categories":[],"categories_nodes":[],"categories_segments":[],"categories_sizes":[],"default_left":[0,0,0,0,0,0,0,0,0,0,0,0,0,0,0],"id":17,"left_children":[1,3,5,7,9,11,13,-1,-1,-1,-1,-1,-1,-1,-1],"loss_changes":[3.297084E1,2.671903E1,4.4544525E0,1.1868046E1,1.9617851E1,6.355775E0,3.0995636E0,0E0,0E0,0E0,0E0,0E0,0E0,0E0,0E0],"parents":[2147483647,0,0,1,1,2,2,3,3,4,4,5,5,6,6],"right_children":[2,4,6,8,10,12,14,-1,-1,-1,-1,-1,-1,-1,-1],"split_conditions":[9.8E2,6.753247E-1,7.162637E-1,2.6E1,2E1,2.19E2,-1.02E1,3.3797126E-2,-2.8949338E-3,2.9821178E-2,-1.2846761E-2,1.4604188E-2,-2.708053E-2,-2.770454E-2,2.1415101E-2],"split_indices":[10,0,0,12,17,12,2,0,0,0,0,0,0,0,0],"split_type":[0,0,0,0,0,0,0,0,0,0,0,0,0,0,0],"sum_hessian":[4.5890027E2,2.8058676E2,1.7831349E2,7.009233E1,2.1049443E2,2.6149027E1,1.5216447E2,4.658611E1,2.3506226E1,2.125553E1,1.892389E2,1.1887267E1,1.4261761E1,1.4986192E2,2.3025484E0],"tree_param":{"num_deleted":"0","num_feature":"19","num_nodes":"15","size_leaf_vector":"1"}},{"base_weights":[1.906587E-1,3.7805358E-1,-5.207763E-1,4.5944083E-1,-2.9680949E-2,-6.4418876E-1,2.21945E-2,-1.7938111E-2,2.3638781E-2,-2.032757E-2,-2.9114366E-2,3.81173E-2,-1.6368395E-2],"categories":[],"categories_nodes":[],"categories_segments":[],"categories_sizes":[],"default_left":[0,0,1,0,0,0,0,0,0,0,0,0,0],"id":18,"left_children":[1,3,5,7,-1,9,11,-1,-1,-1,-1,-1,-1],"loss_changes":[6.455197E1,3.3772705E1,6.7702084E0,3.2135666E1,0E0,6.128769E-1,6.781427E0,0E0,0E0,0E0,0E0,0E0,0E0],"parents":[2147483647,0,0,1,1,2,2,3,3,5,5,6,6],"right_children":[2,4,6,8,-1,10,12,-1,-1,-1,-1,-1,-1],"split_conditions":[9.404E3,1E0,9E1,2.1E1,-2.9680949E-2,3.6978E4,1.01E2,-1.7938111E-2,2.3638781E-2,-2.032757E-2,-2.9114366E-2,3.81173E-2,-1.6368395E-2],"split_indices":[10,14,7,15,0,10,12,0,0,0,0,0,0],"split_type":[0,0,0,0,0,0,0,0,0,0,0,0,0],"sum_hessian":[4.8419583E2,3.832592E2,1.00936646E2,3.564752E2,2.6783993E1,8.22583E1,1.867834E1,3.6755795E1,3.197194E2,1.8615818E1,6.3642483E1,5.9386635E0,1.2739678E1],"tree_param":{"num_deleted":"0","num_feature":"19","num_nodes":"13","size_leaf_vector":"1"}},{"base_weights":[5.0476167E-2,-4.856033E-1,7.019392E-1,-6.065073E-1,5.1418122E-2,2.5706434E-1,9.9396205E-1,-2.7260723E-2,-7.717304E-4,4.505417E-3,4.9435947E-2,3.471609E-3,4.4412103E-2],"categories":[],"categories_nodes":[],"categories_segments":[],"categories_sizes":[],"default_left":[0,0,0,0,0,0,0,0,0,0,0,0,0],"id":19,"left_children":[1,3,5,7,-1,9,11,-1,-1,-1,-1,-1,-1],"loss_changes":[1.6286269E2,5.2773357E1,2.7336174E1,5.718506E0,0E0,1.14675865E1,6.998337E0,0E0,0E0,0E0,0E0,0E0,0E0],"parents":[2147483647,0,0,1,1,2,2,3,3,5,5,6,6],"right_children":[2,4,6,8,-1,10,12,-1,-1,-1,-1,-1,-1],"split_conditions":[9.8E2,1E0,9.404E3,5.9E2,5.1418122E-2,1E0,2.1E1,-2.7260723E-2,-7.717304E-4,4.505417E-3,4.9435947E-2,3.471609E-3,4.4412103E-2],"split_indices":[10,14,10,10,0,14,17,0,0,0,0,0,0],"split_type":[0,0,0,0,0,0,0,0,0,0,0,0,0],"sum_hessian":[4.6632898E2,2.5581093E2,2.1051805E2,2.3889236E2,1.6918556E1,8.3441086E1,1.2707697E2,2.2339929E2,1.549307E1,7.171312E1,1.172796E1,7.922171E0,1.191548E2],"tree_param":{"num_deleted":"0","num_feature":"19","num_nodes":"13","size_leaf_vector":"1"}},{"base_weights":[-2.4637285E-1,-3.3248004E-1,6.830856E-1,1.7006922E-1,-4.7981483E-1,1.0334665E0,2.643483E-1,2.387933E-2,-4.576428E-3,4.9813807E-2,-2.1899449E-2,4.881004E-2,1.715588E-2,3.9921433E-2,-6.8986136E-3],"categories":[],"categories_nodes":[],"categories_segments":[],"categories_sizes":[],"default_left":[0,0,0,0,0,0,0,0,0,0,0,0,0,0,0],"id":20,"left_children":[1,3,5,7,9,11,13,-1,-1,-1,-1,-1,-1,-1,-1],"loss_changes":[3.60395E1,3.052187E1,5.587034E0,1.0340611E1,2.1268723E1,1.614172E0,5.1023536E0,0E0,0E0,0E0,0E0,0E0,0E0,0E0,0E0],"parents":[2147483647,0,0,1,1,2,2,3,3,4,4,5,5,6,6],"right_children":[2,4,6,8,10,12,14,-1,-1,-1,-1,-1,-1,-1,-1],"split_conditions":[7.4E1,7.0689654E-1,9.355693E-1,1.06E1,4.9E1,7.47E2,2.1E1,2.387933E-2,-4.576428E-3,4.9813807E-2,-2.1899449E-2,4.881004E-2,1.715588E-2,3.9921433E-2,-6.8986136E-3],"split_indices":[18,0,0,6,18,9,15,0,0,0,0,0,0,0,0],"split_type":[0,0,0,0,0,0,0,0,0,0,0,0,0,0,0],"sum_hessian":[4.5034283E2,4.1217084E2,3.8172016E1,9.342727E1,3.1874356E2,2.07672E1,1.7404818E1,3.8557125E1,5.4870144E1,7.507552E0,3.11236E2,1.728606E1,3.4811397E0,6.711322E0,1.0693496E1],"tree_param":{"num_deleted":"0","num_feature":"19","num_nodes":"15","size_leaf_vector":"1"}},{"base_weights":[1.9129302E-1,3.7594378E-1,-5.1268923E-1,-4.068778E-1,4.7145775E-1,-6.3368076E-1,-2.975917E-2,-2.0845843E-2,8.378373E-3,2.236596E-2,-2.9306673E-2,4.465413E-3,-2.7176578E-2,3.8812768E-2,-2.0069925E-2],"categories":[],"categories_nodes":[],"categories_segments":[],"categories_sizes":[],"default_left":[0,0,1,0,0,0,0,0,0,0,0,0,0,0,0],"id":21,"left_children":[1,3,5,7,9,11,13,-1,-1,-1,-1,-1,-1,-1,-1],"loss_changes":[6.2971096E1,2.8696907E1,5.8743114E0,2.2292657E0,2.3788048E1,6.945648E-1,8.57479E0,0E0,0E0,0E0,0E0,0E0,0E0,0E0,0E0],"parents":[2147483647,0,0,1,1,2,2,3,3,4,4,5,5,6,6],"right_children":[2,4,6,8,10,12,14,-1,-1,-1,-1,-1,-1,-1,-1],"split_conditions":[1.0075E4,2.1E1,9E1,2.8E1,1E0,6.6E1,1.01E2,-2.0845843E-2,8.378373E-3,2.236596E-2,-2.9306673E-2,4.465413E-3,-2.7176578E-2,3.8812768E-2,-2.0069925E-2],"split_indices":[9,15,7,12,14,1,12,0,0,0,0,0,0,0,0],"split_type":[0,0,0,0,0,0,0,0,0,0,0,0,0,0,0],"sum_hessian":[4.8443182E2,3.837831E2,1.0064872E2,4.1721817E1,3.4206128E2,8.046705E1,2.018167E1,3.6441498E1,5.2803197E0,3.254598E2,1.6601469E1,1.2258605E0,7.924119E1,6.4411798E0,1.374049E1],"tree_param":{"num_deleted":"0","num_feature":"19","num_nodes":"15","size_leaf_vector":"1"}},{"base_weights":[3.6853094E-2,-4.8577076E-1,6.708262E-1,-5.652654E-1,-1.3990542E-1,2.721385E-1,9.425915E-1,-2.8141936E-2,-2.087908E-2,4.730367E-2,-9.063741E-3,2.6283091E-2,-9.062577E-3,2.2447552E-3,4.193623E-2],"categories":[],"categories_nodes":[],"categories_segments":[],"categories_sizes":[],"default_left":[0,0,0,0,0,0,0,0,0,0,0,0,0,0,0],"id":22,"left_children":[1,3,5,7,9,11,13,-1,-1,-1,-1,-1,-1,-1,-1],"loss_changes":[1.5289294E2,6.9467506E0,2.2580078E1,1.4588242E0,4.489276E0,1.4502095E1,5.8440857E0,0E0,0E0,0E0,0E0,0E0,0E0,0E0,0E0],"parents":[2147483647,0,0,1,1,2,2,3,3,4,4,5,5,6,6],"right_children":[2,4,6,8,10,12,14,-1,-1,-1,-1,-1,-1,-1,-1],"split_conditions":[9.15E2,1.016E2,9.404E3,-2.71E1,1E0,1E0,2.1E1,-2.8141936E-2,-2.087908E-2,4.730367E-2,-9.063741E-3,2.6283091E-2,-9.062577E-3,2.2447552E-3,4.193623E-2],"split_indices":[10,6,10,2,4,13,17,0,0,0,0,0,0,0,0],"split_type":[0,0,0,0,0,0,0,0,0,0,0,0,0,0,0],"sum_hessian":[4.6144247E2,2.5292503E2,2.0851744E2,2.0563132E2,4.7293728E1,8.453873E1,1.2397871E2,8.28477E1,1.2278361E2,2.6513176E0,4.464241E1,4.9101345E1,3.543738E1,6.9970403E0,1.1698167E2],"tree_param":{"num_deleted":"0","num_feature":"19","num_nodes":"15","size_leaf_vector":"1"}},{"base_weights":[-2.3132338E-1,2.1336631E-1,-4.3506658E-1,5.460159E-1,-2.7180335E-1,6.462601E-1,-5.001451E-1,1.6199047E-2,4.639582E-2,6.220519E-2,-1.3895489E-2,4.575994E-2,9.689866E-3,5.509212E-2,-2.1964002E-2],"categories":[],"categories_nodes":[],"categories_segments":[],"categories_sizes":[],"default_left":[0,0,0,0,0,0,0,0,0,0,0,0,0,0,0],"id":23,"left_children":[1,3,5,7,9,11,13,-1,-1,-1,-1,-1,-1,-1,-1],"loss_changes":[3.9515884E1,2.21167E1,2.1047466E1,7.2738495E0,5.6527004E0,3.0955024E0,1.0884094E1,0E0,0E0,0E0,0E0,0E0,0E0,0E0,0E0],"parents":[2147483647,0,0,1,1,2,2,3,3,4,4,5,5,6,6],"right_children":[2,4,6,8,10,12,14,-1,-1,-1,-1,-1,-1,-1,-1],"split_conditions":[7.8846157E-1,2.9E1,2E1,6.7E1,5.3E1,6.7E1,4.9E1,1.6199047E-2,4.639582E-2,6.220519E-2,-1.3895489E-2,4.575994E-2,9.689866E-3,5.509212E-2,-2.1964002E-2],"split_indices":[0,12,15,18,18,10,18,0,0,0,0,0,0,0,0],"split_type":[0,0,0,0,0,0,0,0,0,0,0,0,0,0,0],"sum_hessian":[4.36116E2,1.3701572E2,2.9910028E2,8.129653E1,5.5719185E1,1.6969093E1,2.8213116E2,6.3012535E1,1.8283998E1,1.7847207E0,5.3934464E1,8.232786E0,8.736306E0,3.2847085E0,2.7884647E2],"tree_param":{"num_deleted":"0","num_feature":"19","num_nodes":"15","size_leaf_vector":"1"}},{"base_weights":[1.8401822E-1,3.591343E-1,-5.2025247E-1,-3.750163E-1,4.5324418E-1,-6.37392E-1,-6.718758E-2,-9.8982975E-3,-2.9360883E-2,2.6279723E-2,5.501122E-3,4.787546E-3,-2.736004E-2,3.6278132E-2,-1.9845353E-2],"categories":[],"categories_nodes":[],"categories_segments":[],"categories_sizes":[],"default_left":[0,0,1,0,0,0,0,0,0,0,0,0,0,0,0],"id":24,"left_children":[1,3,5,7,9,11,13,-1,-1,-1,-1,-1,-1,-1,-1],"loss_changes":[6.001271E1,2.6927761E1,5.134945E0,1.986527E0,1.901944E1,7.1196556E-1,7.4716177E0,0E0,0E0,0E0,0E0,0E0,0E0,0E0,0E0],"parents":[2147483647,0,0,1,1,2,2,3,3,4,4,5,5,6,6],"right_children":[2,4,6,8,10,12,14,-1,-1,-1,-1,-1,-1,-1,-1],"split_conditions":[9.404E3,2.1E1,9E1,7.6E1,3.17E2,-3.63E1,1.01E2,-9.8982975E-3,-2.9360883E-2,2.6279723E-2,5.501122E-3,4.787546E-3,-2.736004E-2,3.6278132E-2,-1.9845353E-2],"split_indices":[10,15,7,18,10,2,12,0,0,0,0,0,0,0,0],"split_type":[0,0,0,0,0,0,0,0,0,0,0,0,0,0,0],"sum_hessian":[4.8661343E2,3.897245E2,9.688895E1,4.426882E1,3.4545566E2,7.696607E1,1.992287E1,3.0881754E1,1.3387068E1,2.258931E2,1.1956258E2,1.218485E0,7.574759E1,6.0318003E0,1.3891069E1],"tree_param":{"num_deleted":"0","num_feature":"19","num_nodes":"15","size_leaf_vector":"1"}},{"base_weights":[3.1937942E-2,-4.6572682E-1,6.758651E-1,-5.756248E-1,4.9261134E-2,3.50385E-1,9.9548334E-1,-2.6689155E-2,-4.6750032E-3,7.5866845E-3,4.6060387E-2,-1.989384E-3,4.2994734E-2],"categories":[],"categories_nodes":[],"categories_segments":[],"categories_sizes":[],"default_left":[0,0,0,0,0,0,0,0,0,0,0,0,0],"id":25,"left_children":[1,3,5,7,-1,9,11,-1,-1,-1,-1,-1,-1],"loss_changes":[1.5009119E2,4.7472645E1,2.122657E1,6.669739E0,0E0,1.2790116E1,2.7318802E0,0E0,0E0,0E0,0E0,0E0,0E0],"parents":[2147483647,0,0,1,1,2,2,3,3,5,5,6,6],"right_children":[2,4,6,8,-1,10,12,-1,-1,-1,-1,-1,-1],"split_conditions":[1.355E3,1E0,2.5307E4,6.1E2,4.9261134E-2,1E0,5.3E1,-2.6689155E-2,-4.6750032E-3,7.5866845E-3,4.6060387E-2,-1.989384E-3,4.2994734E-2],"split_indices":[9,14,9,9,0,14,18,0,0,0,0,0,0],"split_type":[0,0,0,0,0,0,0,0,0,0,0,0,0],"sum_hessian":[4.6835052E2,2.6416962E2,2.0418091E2,2.4754202E2,1.662759E1,1.0118099E2,1.02999916E2,2.2002608E2,2.7515959E1,8.233652E1,1.8844475E1,2.4344158E0,1.005655E2],"tree_param":{"num_deleted":"0","num_feature":"19","num_nodes":"13","size_leaf_vector":"1"}},{"base_weights":[-2.2280326E-1,1.6934365E-1,-4.260613E-1,4.836592E-1,-3.2238242E-1,3.2681325E-1,-5.3017527E-1,2.3184778E-2,-3.0854443E-2,3.143618E-2,-1.6887525E-2,2.7479637E-2,-2.4713714E-2,-2.3365416E-2,3.3499137E-2],"categories":[],"categories_nodes":[],"categories_segments":[],"categories_sizes":[],"default_left":[0,0,0,0,0,0,0,0,0,0,0,0,0,0,0],"id":26,"left_children":[1,3,5,7,9,11,13,-1,-1,-1,-1,-1,-1,-1,-1],"loss_changes":[3.503597E1,2.3190006E1,2.2694729E1,7.4381504E0,4.909582E0,1.0461742E1,8.28923E0,0E0,0E0,0E0,0E0,0E0,0E0,0E0,0E0],"parents":[2147483647,0,0,1,1,2,2,3,3,4,4,5,5,6,6],"right_children":[2,4,6,8,10,12,14,-1,-1,-1,-1,-1,-1,-1,-1],"split_conditions":[8.201058E-1,2.9E1,2.1E1,1E0,3.3333334E-1,2.5E1,6E0,2.3184778E-2,-3.0854443E-2,3.143618E-2,-1.6887525E-2,2.7479637E-2,-2.4713714E-2,-2.3365416E-2,3.3499137E-2],"split_indices":[0,12,15,14,0,1,4,0,0,0,0,0,0,0,0],"split_type":[0,0,0,0,0,0,0,0,0,0,0,0,0,0,0],"sum_hessian":[4.395222E2,1.5002621E2,2.8949597E2,9.153618E1,5.849004E1,3.5157864E1,2.543381E2,8.6778366E1,4.757808E0,3.9955826E0,5.4494457E1,2.5927986E1,9.229877E0,2.4971455E2,4.6235566E0],"tree_param":{"num_deleted":"0","num_feature":"19","num_nodes":"15","size_leaf_vector":"1"}},{"base_weights":[1.7272303E-1,3.4414402E-1,-5.0264996E-1,4.108909E-1,-2.8944254E-2,-6.1861056E-1,-6.3374075E-3,-1.4316459E-2,2.0761354E-2,4.947039E-3,-2.6552241E-2,3.5576418E-2,-1.8252041E-2],"categories":[],"categories_nodes":[],"categories_segments":[],"categories_sizes":[],"default_left":[0,0,1,0,0,0,0,0,0,0,0,0,0],"id":27,"left_children":[1,3,5,7,-1,9,11,-1,-1,-1,-1,-1,-1],"loss_changes":[5.485448E1,2.6013851E1,5.5133553E0,2.1867737E1,0E0,6.816616E-1,6.6046095E0,0E0,0E0,0E0,0E0,0E0,0E0],"parents":[2147483647,0,0,1,1,2,2,3,3,5,5,6,6],"right_children":[2,4,6,8,-1,10,12,-1,-1,-1,-1,-1,-1],"split_conditions":[9.075E3,1E0,9E1,2.1E1,-2.8944254E-2,-3.63E1,1.01E2,-1.4316459E-2,2.0761354E-2,4.947039E-3,-2.6552241E-2,3.5576418E-2,-1.8252041E-2],"split_indices":[10,14,7,15,0,2,12,0,0,0,0,0,0],"split_type":[0,0,0,0,0,0,0,0,0,0,0,0,0],"sum_hessian":[4.7381808E2,3.7791348E2,9.590459E1,3.549533E2,2.2960167E1,7.772383E1,1.8180761E1,3.4954575E1,3.1999875E2,1.2145445E0,7.6509285E1,6.0658216E0,1.211494E1],"tree_param":{"num_deleted":"0","num_feature":"19","num_nodes":"13","size_leaf_vector":"1"}},{"base_weights":[3.7232686E-2,-4.5344976E-1,6.7239463E-1,-5.5382836E-1,4.7683083E-2,3.6863154E-1,9.6989983E-1,-2.5654329E-2,3.8330615E-4,2.6953483E-2,-3.7844358E-3,1.8614277E-2,4.22204E-2],"categories":[],"categories_nodes":[],"categories_segments":[],"categories_sizes":[],"default_left":[0,0,0,0,0,0,0,0,0,0,0,0,0],"id":28,"left_children":[1,3,5,7,-1,9,11,-1,-1,-1,-1,-1,-1],"loss_changes":[1.4184015E2,4.0858696E1,1.791137E1,7.520668E0,0E0,1.2217665E1,1.7055817E0,0E0,0E0,0E0,0E0,0E0,0E0],"parents":[2147483647,0,0,1,1,2,2,3,3,5,5,6,6],"right_children":[2,4,6,8,-1,10,12,-1,-1,-1,-1,-1,-1],"split_conditions":[1.355E3,1E0,2.5307E4,3.259E2,4.7683083E-2,9.1E1,2.1E1,-2.5654329E-2,3.8330615E-4,2.6953483E-2,-3.7844358E-3,1.8614277E-2,4.22204E-2],"split_indices":[9,14,9,6,0,7,15,0,0,0,0,0,0],"split_type":[0,0,0,0,0,0,0,0,0,0,0,0,0],"sum_hessian":[4.5509583E2,2.5674048E2,1.9835535E2,2.4146227E2,1.5278229E1,9.816496E1,1.0019038E2,2.1988574E2,2.1576523E1,6.168292E1,3.6482044E1,5.83713E0,9.435324E1],"tree_param":{"num_deleted":"0","num_feature":"19","num_nodes":"13","size_leaf_vector":"1"}},{"base_weights":[-2.0115407E-1,-3.23282E-1,6.171153E-1,1.7490676E-1,-4.8194432E-1,7.670425E-1,-1.06814094E-1,1.759075E-2,-1.6407298E-2,4.4284232E-2,-2.1934731E-2,4.3917228E-2,2.0355554E-2,1.8097851E-2,-2.8965035E-2],"categories":[],"categories_nodes":[],"categories_segments":[],"categories_sizes":[],"default_left":[0,0,0,0,0,0,0,0,0,0,0,0,0,0,0],"id":29,"left_children":[1,3,5,7,9,11,13,-1,-1,-1,-1,-1,-1,-1,-1],"loss_changes":[4.4534985E1,3.065688E1,6.2877674E0,1.2834495E1,1.752024E1,3.73427E0,3.094697E0,0E0,0E0,0E0,0E0,0E0,0E0,0E0,0E0],"parents":[2147483647,0,0,1,1,2,2,3,3,4,4,5,5,6,6],"right_children":[2,4,6,8,10,12,14,-1,-1,-1,-1,-1,-1,-1,-1],"split_conditions":[6.9E1,7.0689654E-1,2.8E1,5.8E1,4.9E1,9.1040355E-1,7.8561795E-1,1.759075E-2,-1.6407298E-2,4.4284232E-2,-2.1934731E-2,4.3917228E-2,2.0355554E-2,1.8097851E-2,-2.8965035E-2],"split_indices":[18,0,12,12,18,0,0,0,0,0,0,0,0,0,0],"split_type":[0,0,0,0,0,0,0,0,0,0,0,0,0,0,0],"sum_hessian":[4.4566864E2,3.878024E2,5.7866245E1,9.3658134E1,2.941443E2,4.7949654E1,9.916593E0,6.55057E1,2.8152435E1,7.260878E0,2.868834E2,2.4298574E1,2.365108E1,5.146518E0,4.7700744E0],"tree_param":{"num_deleted":"0","num_feature":"19","num_nodes":"15","size_leaf_vector":"1"}},{"base_weights":[1.5520029E-1,3.1606916E-1,-5.016354E-1,3.8069454E-1,-2.8634438E-2,-2.6193492E-2,1.9288125E-2,1.9226972E-2,-1.6780464E-2,3.292048E-2,-1.4324713E-2],"categories":[],"categories_nodes":[],"categories_segments":[],"categories_sizes":[],"default_left":[0,0,1,0,0,0,0,0,0,0,0],"id":30,"left_children":[1,3,5,7,-1,-1,9,-1,-1,-1,-1],"loss_changes":[5.0355965E1,2.4637917E1,5.879925E0,2.123648E1,0E0,0E0,4.819552E0,0E0,0E0,0E0,0E0],"parents":[2147483647,0,0,1,1,2,2,3,3,6,6],"right_children":[2,4,6,8,-1,-1,10,-1,-1,-1,-1],"split_conditions":[9.404E3,1E0,9E1,7.6E1,-2.8634438E-2,-2.6193492E-2,1.01E2,1.9226972E-2,-1.6780464E-2,3.292048E-2,-1.4324713E-2],"split_indices":[10,14,7,18,0,0,12,0,0,0,0],"split_type":[0,0,0,0,0,0,0,0,0,0,0],"sum_hessian":[4.765769E2,3.8283224E2,9.3744644E1,3.5951535E2,2.3316908E1,7.617527E1,1.7569382E1,3.2764734E2,3.1868011E1,5.6372724E0,1.1932109E1],"tree_param":{"num_deleted":"0","num_feature":"19","num_nodes":"11","size_leaf_vector":"1"}},{"base_weights":[3.3032045E-2,-4.5688313E-1,5.9977543E-1,-5.5701864E-1,4.573874E-2,3.1157428E-1,9.406972E-1,-2.5340632E-2,4.555429E-3,6.419956E-3,4.398309E-2,4.104087E-2,3.1141058E-2],"categories":[],"categories_nodes":[],"categories_segments":[],"categories_sizes":[],"default_left":[0,0,0,0,0,0,1,0,0,0,0,0,0],"id":31,"left_children":[1,3,5,7,-1,9,11,-1,-1,-1,-1,-1,-1],"loss_changes":[1.2659463E2,3.777525E1,2.0757675E1,6.8247147E0,0E0,1.334828E1,6.385269E-1,0E0,0E0,0E0,0E0,0E0,0E0],"parents":[2147483647,0,0,1,1,2,2,3,3,5,5,6,6],"right_children":[2,4,6,8,-1,10,12,-1,-1,-1,-1,-1,-1],"split_conditions":[9.15E2,1E0,3.6978E4,3.259E2,4.573874E-2,1E0,3E0,-2.5340632E-2,4.555429E-3,6.419956E-3,4.398309E-2,4.104087E-2,3.1141058E-2],"split_indices":[10,14,10,6,0,14,8,0,0,0,0,0,0],"split_type":[0,0,0,0,0,0,0,0,0,0,0,0,0],"sum_hessian":[4.5593024E2,2.445308E2,2.1139944E2,2.2963503E2,1.489578E1,1.14576E2,9.6823456E1,2.1520634E2,1.4428675E1,9.41447E1,2.04313E1,8.287484E1,1.3948614E1],"tree_param":{"num_deleted":"0","num_feature":"19","num_nodes":"13","size_leaf_vector":"1"}},{"base_weights":[-2.2713445E-1,-3.5095185E-1,4.2842385E-1,2.6920438E-1,-4.404265E-1,5.9569615E-1,-4.9328867E-1,2.1095192E-2,-2.5055692E-2,4.696588E-4,-2.1817468E-2,5.242047E-2,1.8317856E-2,-2.8565539E-2,5.342807E-3],"categories":[],"categories_nodes":[],"categories_segments":[],"categories_sizes":[],"default_left":[0,0,0,0,0,0,0,0,0,0,0,0,0,0,0],"id":32,"left_children":[1,3,5,7,9,11,13,-1,-1,-1,-1,-1,-1,-1,-1],"loss_changes":[3.5085846E1,2.017765E1,1.0587527E1,9.174379E0,1.1138737E1,6.045767E0,1.2144742E0,0E0,0E0,0E0,0E0,0E0,0E0,0E0,0E0],"parents":[2147483647,0,0,1,1,2,2,3,3,4,4,5,5,6,6],"right_children":[2,4,6,8,10,12,14,-1,-1,-1,-1,-1,-1,-1,-1],"split_conditions":[6.7E1,2.1E1,4.401E3,1.7E1,5.6E1,2.6E1,1E0,2.1095192E-2,-2.5055692E-2,4.696588E-4,-2.1817468E-2,5.242047E-2,1.8317856E-2,-2.8565539E-2,5.342807E-3],"split_indices":[18,17,10,12,18,10,13,0,0,0,0,0,0,0,0],"split_type":[0,0,0,0,0,0,0,0,0,0,0,0,0,0,0],"sum_hessian":[4.322568E2,3.6359924E2,6.865756E1,4.5829937E1,3.1776932E2,5.812153E1,1.05360365E1,3.6150887E1,9.679049E0,4.6572857E1,2.7119647E2,1.1524902E1,4.6596626E1,8.128134E0,2.407902E0],"tree_param":{"num_deleted":"0","num_feature":"19","num_nodes":"15","size_leaf_vector":"1"}},{"base_weights":[1.4417283E-1,3.099576E-1,-5.1345456E-1,-3.975625E-1,3.953147E-1,-5.978921E-1,4.8949316E-2,-2.0211745E-2,3.7982652E-3,1.915773E-2,-2.8332258E-2,-1.6911868E-2,-2.6963783E-2,3.5415247E-2,-1.778371E-2],"categories":[],"categories_nodes":[],"categories_segments":[],"categories_sizes":[],"default_left":[0,0,1,0,0,0,0,0,0,0,0,0,0,0,0],"id":33,"left_children":[1,3,5,7,9,11,13,-1,-1,-1,-1,-1,-1,-1,-1],"loss_changes":[5.3130936E1,2.3507141E1,4.664692E0,1.6861806E0,2.2089195E1,6.976223E-1,4.7789435E0,0E0,0E0,0E0,0E0,0E0,0E0,0E0,0E0],"parents":[2147483647,0,0,1,1,2,2,3,3,4,4,5,5,6,6],"right_children":[2,4,6,8,10,12,14,-1,-1,-1,-1,-1,-1,-1,-1],"split_conditions":[9.404E3,2.1E1,9.1E1,2.8E1,1E0,-2.65E1,1.01E2,-2.0211745E-2,3.7982652E-3,1.915773E-2,-2.8332258E-2,-1.6911868E-2,-2.6963783E-2,3.5415247E-2,-1.778371E-2],"split_indices":[10,15,7,12,14,2,12,0,0,0,0,0,0,0,0],"split_type":[0,0,0,0,0,0,0,0,0,0,0,0,0,0,0],"sum_hessian":[4.873429E2,3.8923523E2,9.810766E1,4.1889336E1,3.4734592E2,8.5316414E1,1.27912445E1,3.585778E1,6.031555E0,3.2901227E2,1.8333633E1,1.517192E1,7.01445E1,4.7789793E0,8.012265E0],"tree_param":{"num_deleted":"0","num_feature":"19","num_nodes":"15","size_leaf_vector":"1"}},{"base_weights":[-1.9371988E-3,-4.5691946E-1,5.8162344E-1,-4.8894817E-1,2.2157982E-1,2.9019058E-1,8.779826E-1,-2.4703251E-2,4.461841E-2,4.194909E-2,-1.2806597E-2,5.5091423E-3,4.192682E-2,3.9588034E-2,2.724023E-2],"categories":[],"categories_nodes":[],"categories_segments":[],"categories_sizes":[],"default_left":[0,0,0,0,0,0,1,0,0,0,0,0,0,0,0],"id":34,"left_children":[1,3,5,7,9,11,13,-1,-1,-1,-1,-1,-1,-1,-1],"loss_changes":[1.2054564E2,5.5472107E0,1.7165878E1,3.6808083E1,4.6840734E0,1.1263425E1,1.3948975E0,0E0,0E0,0E0,0E0,0E0,0E0,0E0,0E0],"parents":[2147483647,0,0,1,1,2,2,3,3,4,4,5,5,6,6],"right_children":[2,4,6,8,10,12,14,-1,-1,-1,-1,-1,-1,-1,-1],"split_conditions":[1.355E3,1.55E2,4.9813E3,1E0,2.2E1,1E0,3E0,-2.4703251E-2,4.461841E-2,4.194909E-2,-1.2806597E-2,5.5091423E-3,4.192682E-2,3.9588034E-2,2.724023E-2],"split_indices":[9,12,6,14,1,14,8,0,0,0,0,0,0,0,0],"split_type":[0,0,0,0,0,0,0,0,0,0,0,0,0,0,0],"sum_hessian":[4.5401584E2,2.5512303E2,1.988928E2,2.436377E2,1.1485336E1,1.0029952E2,9.8593285E1,2.292005E2,1.4437201E1,4.65073E0,6.834606E0,8.182505E1,1.8474478E1,7.7716675E1,2.0876606E1],"tree_param":{"num_deleted":"0","num_feature":"19","num_nodes":"15","size_leaf_vector":"1"}},{"base_weights":[-1.8893127E-1,-3.1852797E-1,5.375897E-1,2.0355834E-1,-4.703606E-1,8.821262E-1,1.4542006E-1,2.5097491E-2,-4.5373193E-3,2.2171699E-2,-2.1845507E-2,4.3113254E-2,9.845227E-3,5.6498572E-2,-4.9440614E-3],"categories":[],"categories_nodes":[],"categories_segments":[],"categories_sizes":[],"default_left":[0,0,0,0,0,0,0,0,0,0,0,0,0,0,0],"id":35,"left_children":[1,3,5,7,9,11,13,-1,-1,-1,-1,-1,-1,-1,-1],"loss_changes":[4.0734524E1,2.910862E1,8.837095E0,1.0106345E1,1.3701271E1,3.1837406E0,9.644056E0,0E0,0E0,0E0,0E0,0E0,0E0,0E0,0E0],"parents":[2147483647,0,0,1,1,2,2,3,3,4,4,5,5,6,6],"right_children":[2,4,6,8,10,12,14,-1,-1,-1,-1,-1,-1,-1,-1],"split_conditions":[6.8E1,6.753247E-1,9.2771083E-1,1.51E1,2E1,7.24E2,2.6E1,2.5097491E-2,-4.5373193E-3,2.2171699E-2,-2.1845507E-2,4.3113254E-2,9.845227E-3,5.6498572E-2,-4.9440614E-3],"split_indices":[18,0,0,6,15,10,10,0,0,0,0,0,0,0,0],"split_type":[0,0,0,0,0,0,0,0,0,0,0,0,0,0,0],"sum_hessian":[4.326508E2,3.6717032E2,6.548046E1,8.270753E1,2.8446277E2,3.484175E1,3.063871E1,3.6604008E1,4.6103523E1,1.3140799E1,2.71322E2,2.8585596E1,6.256154E0,5.5247083E0,2.5114002E1],"tree_param":{"num_deleted":"0","num_feature":"19","num_nodes":"15","size_leaf_vector":"1"}},{"base_weights":[1.5759641E-1,3.0889127E-1,-4.8343837E-1,-4.0526664E-1,3.9405945E-1,-2.0701414E-1,-2.4831235E-2,-2.4790116E-2,-1.0207548E-2,1.907071E-2,-2.799783E-2,1.5144158E-2,-1.8559238E-2],"categories":[],"categories_nodes":[],"categories_segments":[],"categories_sizes":[],"default_left":[0,0,0,0,0,0,0,0,0,0,0,0,0],"id":36,"left_children":[1,3,5,7,9,11,-1,-1,-1,-1,-1,-1,-1],"loss_changes":[4.5740356E1,2.3210049E1,2.6333427E0,1.2051678E0,2.1202717E1,3.3121243E0,0E0,0E0,0E0,0E0,0E0,0E0,0E0],"parents":[2147483647,0,0,1,1,2,2,3,3,4,4,5,5],"right_children":[2,4,6,8,10,12,-1,-1,-1,-1,-1,-1,-1],"split_conditions":[9.404E3,2.1E1,3.6978E4,7.5E1,1E0,5.9E1,-2.4831235E-2,-2.4790116E-2,-1.0207548E-2,1.907071E-2,-2.799783E-2,1.5144158E-2,-1.8559238E-2],"split_indices":[10,15,10,10,14,18,0,0,0,0,0,0,0],"split_type":[0,0,0,0,0,0,0,0,0,0,0,0,0],"sum_hessian":[4.7163394E2,3.8158954E2,9.0044395E1,4.064472E1,3.4094482E2,2.5009172E1,6.5035225E1,1.9091673E1,2.1553043E1,3.230355E2,1.790934E1,7.288812E0,1.772036E1],"tree_param":{"num_deleted":"0","num_feature":"19","num_nodes":"13","size_leaf_vector":"1"}},{"base_weights":[4.151606E-2,-4.365312E-1,6.044087E-1,-5.395081E-1,4.3486487E-2,3.3559936E-1,8.6203223E-1,-2.688956E-2,-1.0508154E-2,2.6043285E-2,-1.9631153E-3,3.6970142E-2,-1.0403309E-2],"categories":[],"categories_nodes":[],"categories_segments":[],"categories_sizes":[],"default_left":[0,0,0,0,0,0,1,0,0,0,0,0,0],"id":37,"left_children":[1,3,5,7,-1,9,11,-1,-1,-1,-1,-1,-1],"loss_changes":[1.2130137E2,3.6870087E1,1.4324165E1,6.526291E0,0E0,1.0957312E1,1.8532867E0,0E0,0E0,0E0,0E0,0E0,0E0],"parents":[2147483647,0,0,1,1,2,2,3,3,5,5,6,6],"right_children":[2,4,6,8,-1,10,12,-1,-1,-1,-1,-1,-1],"split_conditions":[1.355E3,1E0,2.5307E4,2.6E2,4.3486487E-2,1E0,4E0,-2.688956E-2,-1.0508154E-2,2.6043285E-2,-1.9631153E-3,3.6970142E-2,-1.0403309E-2],"split_indices":[9,14,9,9,0,13,8,0,0,0,0,0,0],"split_type":[0,0,0,0,0,0,0,0,0,0,0,0,0],"sum_hessian":[4.5077377E2,2.4374837E2,2.070254E2,2.2778912E2,1.5959241E1,1.01335205E2,1.056902E2,1.6982037E2,5.7968746E1,5.82607E1,4.3074505E1,1.0421962E2,1.470583E0],"tree_param":{"num_deleted":"0","num_feature":"19","num_nodes":"13","size_leaf_vector":"1"}},{"base_weights":[-1.7131E-1,-2.9422906E-1,4.4422174E-1,3.0892333E-1,-4.6110505E-1,8.191623E-1,8.902441E-2,2.665759E-2,-6.2343534E-3,3.5953574E-2,-2.1411927E-2,3.750926E-2,-2.8507719E-2,5.2721635E-2,-6.441165E-3],"categories":[],"categories_nodes":[],"categories_segments":[],"categories_sizes":[],"default_left":[0,0,0,0,0,0,0,0,0,0,0,0,0,0,0],"id":38,"left_children":[1,3,5,7,9,11,13,-1,-1,-1,-1,-1,-1,-1,-1],"loss_changes":[3.2388676E1,3.5919533E1,9.478977E0,1.1453157E1,1.7373348E1,3.705431E0,1.0309257E1,0E0,0E0,0E0,0E0,0E0,0E0,0E0,0E0],"parents":[2147483647,0,0,1,1,2,2,3,3,4,4,5,5,6,6],"right_children":[2,4,6,8,10,12,14,-1,-1,-1,-1,-1,-1,-1,-1],"split_conditions":[6.7E1,6.753247E-1,9.1040355E-1,2.9E1,4.9E1,4.92E2,2.8E1,2.665759E-2,-6.2343534E-3,3.5953574E-2,-2.1411927E-2,3.750926E-2,-2.8507719E-2,5.2721635E-2,-6.441165E-3],"split_indices":[18,0,0,12,18,12,9,0,0,0,0,0,0,0,0],"split_type":[0,0,0,0,0,0,0,0,0,0,0,0,0,0,0],"sum_hessian":[4.2809207E2,3.5684863E2,7.124343E1,7.73205E1,2.7952814E2,3.4643074E1,3.660036E1,4.525358E1,3.206692E1,9.694228E0,2.698339E2,3.307193E1,1.5711429E0,6.3098345E0,3.0290525E1],"tree_param":{"num_deleted":"0","num_feature":"19","num_nodes":"15","size_leaf_vector":"1"}},{"base_weights":[1.582041E-1,2.8308418E-1,-5.5089027E-1,3.4212583E-1,-2.768391E-2,-2.6219083E-2,-2.2941035E-1,6.8743285E-3,2.7162235E-2,3.1404518E-2,-2.3296546E-2],"categories":[],"categories_nodes":[],"categories_segments":[],"categories_sizes":[],"default_left":[0,0,1,0,0,0,0,0,0,0,0],"id":39,"left_children":[1,3,5,7,-1,-1,9,-1,-1,-1,-1],"loss_changes":[4.2204247E1,2.2498932E1,1.6342773E0,2.0649487E1,0E0,0E0,4.112645E0,0E0,0E0,0E0,0E0],"parents":[2147483647,0,0,1,1,2,2,3,3,6,6],"right_children":[2,4,6,8,-1,-1,10,-1,-1,-1,-1],"split_conditions":[2.5307E4,1E0,9E1,8.9E1,-2.768391E-2,-2.6219083E-2,1.01E2,6.8743285E-3,2.7162235E-2,3.1404518E-2,-2.3296546E-2],"split_indices":[9,14,7,7,0,0,12,0,0,0,0],"split_type":[0,0,0,0,0,0,0,0,0,0,0],"sum_hessian":[4.7662946E2,4.0527194E2,7.135754E1,3.8134186E2,2.3930079E1,5.8327473E1,1.3030066E1,2.3973001E2,1.4161183E2,3.2391768E0,9.790889E0],"tree_param":{"num_deleted":"0","num_feature":"19","num_nodes":"11","size_leaf_vector":"1"}},{"base_weights":[1.2504945E-2,-4.270129E-1,5.5186117E-1,-2.5288416E-2,-2.8601614E-1,1.8707813E-1,7.6962626E-1,-1.4717866E-2,1.1654808E-2,1.843552E-2,-9.045059E-3,2.6693062E-3,3.46212E-2],"categories":[],"categories_nodes":[],"categories_segments":[],"categories_sizes":[],"default_left":[0,0,0,0,0,0,0,0,0,0,0,0,0],"id":40,"left_children":[1,3,5,-1,7,9,11,-1,-1,-1,-1,-1,-1],"loss_changes":[1.0447587E2,5.9277077E0,1.5709999E1,0E0,4.7828417E0,7.4549904E0,4.5749207E0,0E0,0E0,0E0,0E0,0E0,0E0],"parents":[2147483647,0,0,1,1,2,2,4,4,5,5,6,6],"right_children":[2,4,6,-1,8,10,12,-1,-1,-1,-1,-1,-1],"split_conditions":[1.355E3,-2.6E1,1.0075E4,-2.5288416E-2,3.259E2,9.1E1,2.1E1,-1.4717866E-2,1.1654808E-2,1.843552E-2,-9.045059E-3,2.6693062E-3,3.46212E-2],"split_indices":[9,2,9,0,6,7,17,0,0,0,0,0,0],"split_type":[0,0,0,0,0,0,0,0,0,0,0,0,0],"sum_hessian":[4.407109E2,2.428201E2,1.9789082E2,1.08857285E2,1.3396281E2,7.39936E1,1.23897224E2,1.2040938E2,1.3553431E1,4.558552E1,2.8408075E1,8.569307E0,1.1532792E2],"tree_param":{"num_deleted":"0","num_feature":"19","num_nodes":"13","size_leaf_vector":"1"}},{"base_weights":[-1.9389859E-1,5.097213E-1,-3.004792E-1,6.722362E-1,-2.9170722E-2,1.6666453E-1,-4.693498E-1,3.411614E-2,-1.5024853E-2,1.874099E-2,-6.3809836E-3,-2.095623E-2,4.202944E-2],"categories":[],"categories_nodes":[],"categories_segments":[],"categories_sizes":[],"default_left":[0,0,0,0,0,0,0,0,0,0,0,0,0],"id":41,"left_children":[1,3,5,7,-1,9,11,-1,-1,-1,-1,-1,-1],"loss_changes":[3.221182E1,1.1039998E1,2.9433182E1,7.0626125E0,0E0,8.77286E0,1.1340473E1,0E0,0E0,0E0,0E0,0E0,0E0],"parents":[2147483647,0,0,1,1,2,2,3,3,5,5,6,6],"right_children":[2,4,6,8,-1,10,12,-1,-1,-1,-1,-1,-1],"split_conditions":[2.1E1,1E0,7.261471E-1,2.89E3,-2.9170722E-2,1.7E1,8.3E1,3.411614E-2,-1.5024853E-2,1.874099E-2,-6.3809836E-3,-2.095623E-2,4.202944E-2],"split_indices":[15,14,0,10,0,12,18,0,0,0,0,0,0],"split_type":[0,0,0,0,0,0,0,0,0,0,0,0,0],"sum_hessian":[4.295564E2,5.6493755E1,3.7306265E2,4.9775257E1,6.718499E0,9.903735E1,2.740253E2,4.3906326E1,5.86893E0,5.2844727E1,4.619263E1,2.6886362E2,5.1616836E0],"tree_param":{"num_deleted":"0","num_feature":"19","num_nodes":"13","size_leaf_vector":"1"}},{"base_weights":[1.4211017E-1,3.432278E-1,-2.852435E-1,-3.5671607E-1,4.3023637E-1,-3.808688E-1,3.7507775E-1,-3.8721275E-3,-2.8625624E-2,3.3910987E-3,2.4449773E-2,6.100327E-4,-2.1604698E-2,3.331951E-2,-2.1842062E-2],"categories":[],"categories_nodes":[],"categories_segments":[],"categories_sizes":[],"default_left":[0,0,1,0,0,0,0,0,0,0,0,0,0,0,0],"id":42,"left_children":[1,3,5,7,9,11,13,-1,-1,-1,-1,-1,-1,-1,-1],"loss_changes":[4.030022E1,1.9419426E1,9.4739065E0,3.0055037E0,1.4898243E1,6.849846E0,7.05535E0,0E0,0E0,0E0,0E0,0E0,0E0,0E0,0E0],"parents":[2147483647,0,0,1,1,2,2,3,3,4,4,5,5,6,6],"right_children":[2,4,6,8,10,12,14,-1,-1,-1,-1,-1,-1,-1,-1],"split_conditions":[1.638E3,2.1E1,9.1E1,6.8E1,7.246892E-1,2.5E1,2.826E4,-3.8721275E-3,-2.8625624E-2,3.3910987E-3,2.4449773E-2,6.100327E-4,-2.1604698E-2,3.331951E-2,-2.1842062E-2],"split_indices":[10,15,7,18,0,12,10,0,0,0,0,0,0,0,0],"split_type":[0,0,0,0,0,0,0,0,0,0,0,0,0,0,0],"sum_hessian":[4.6887677E2,3.1884756E2,1.5002919E2,3.5239323E1,2.8360825E2,1.3106519E2,1.8963997E1,1.938233E1,1.5856993E1,8.52608E1,1.9834744E2,3.280507E1,9.8260124E1,1.2947996E1,6.016001E0],"tree_param":{"num_deleted":"0","num_feature":"19","num_nodes":"15","size_leaf_vector":"1"}},{"base_weights":[4.626447E-3,-4.6100906E-1,5.640785E-1,-5.511568E-1,4.179071E-2,2.0727183E-1,7.696667E-1,-2.6050756E-2,-1.278984E-2,2.3708263E-2,-9.881847E-3,-8.910815E-3,3.3889674E-2],"categories":[],"categories_nodes":[],"categories_segments":[],"categories_sizes":[],"default_left":[0,0,0,0,0,0,0,0,0,0,0,0,0],"id":43,"left_children":[1,3,5,7,-1,9,11,-1,-1,-1,-1,-1,-1],"loss_changes":[1.1421248E2,3.134264E1,1.4599304E1,3.7465363E0,0E0,1.1448664E1,4.342499E0,0E0,0E0,0E0,0E0,0E0,0E0],"parents":[2147483647,0,0,1,1,2,2,3,3,5,5,6,6],"right_children":[2,4,6,8,-1,10,12,-1,-1,-1,-1,-1,-1],"split_conditions":[1.355E3,1E0,1.0075E4,3.46E2,4.179071E-2,1E0,5.3E1,-2.6050756E-2,-1.278984E-2,2.3708263E-2,-9.881847E-3,-8.910815E-3,3.3889674E-2],"split_indices":[9,14,9,9,0,13,18,0,0,0,0,0,0],"split_type":[0,0,0,0,0,0,0,0,0,0,0,0,0],"sum_hessian":[4.3842557E2,2.392656E2,1.9915999E2,2.2529836E2,1.3967227E1,7.282442E1,1.2633558E2,1.7705757E2,4.8240784E1,4.0362972E1,3.2461445E1,4.3380017E0,1.21997574E2],"tree_param":{"num_deleted":"0","num_feature":"19","num_nodes":"13","size_leaf_vector":"1"}},{"base_weights":[-1.7475058E-1,3.2302588E-1,-3.34837E-1,3.8468844E-1,-2.9767506E-2,-4.516374E-1,2.5809622E-1,2.664613E-2,-6.1771916E-3,4.0733553E-2,-2.0852426E-2,4.7356993E-2,2.7752605E-3],"categories":[],"categories_nodes":[],"categories_segments":[],"categories_sizes":[],"default_left":[0,0,0,0,0,0,0,0,0,0,0,0,0],"id":44,"left_children":[1,3,5,7,-1,9,11,-1,-1,-1,-1,-1,-1],"loss_changes":[3.3212715E1,6.436734E0,2.1843746E1,1.2613216E1,0E0,1.6244335E1,8.627563E0,0E0,0E0,0E0,0E0,0E0,0E0],"parents":[2147483647,0,0,1,1,2,2,3,3,5,5,6,6],"right_children":[2,4,6,8,-1,10,12,-1,-1,-1,-1,-1,-1],"split_conditions":[7.0689654E-1,1E0,6.7E1,3.6E1,-2.9767506E-2,4.9E1,2.6E1,2.664613E-2,-6.1771916E-3,4.0733553E-2,-2.0852426E-2,4.7356993E-2,2.7752605E-3],"split_indices":[0,14,18,12,0,18,9,0,0,0,0,0,0],"split_type":[0,0,0,0,0,0,0,0,0,0,0,0,0],"sum_hessian":[4.1678116E2,1.0140482E2,3.1537634E2,9.5686615E1,5.7182045E0,2.6348984E2,5.1886497E1,6.525301E1,3.0433603E1,7.823382E0,2.5566646E2,9.409833E0,4.2476665E1],"tree_param":{"num_deleted":"0","num_feature":"19","num_nodes":"13","size_leaf_vector":"1"}},{"base_weights":[1.3960432E-1,2.6002783E-1,-5.3746223E-1,3.177726E-1,-4.8726824E-1,-9.524444E-2,-2.5225032E-2,1.8863654E-2,4.669965E-4,-2.544577E-2,1.176469E-2,-1.6020264E-2,4.521341E-2],"categories":[],"categories_nodes":[],"categories_segments":[],"categories_sizes":[],"default_left":[0,0,0,0,0,0,0,0,0,0,0,0,0],"id":45,"left_children":[1,3,5,7,9,11,-1,-1,-1,-1,-1,-1,-1],"loss_changes":[3.7377823E1,1.6795485E1,1.8739471E0,1.4413509E1,2.5045495E0,2.8160264E0,0E0,0E0,0E0,0E0,0E0,0E0,0E0],"parents":[2147483647,0,0,1,1,2,2,3,3,4,4,5,5],"right_children":[2,4,6,8,10,12,-1,-1,-1,-1,-1,-1,-1],"split_conditions":[2.5307E4,7.7E1,1.7E1,6.25E2,7.24E2,2E0,-2.5225032E-2,1.8863654E-2,4.669965E-4,-2.544577E-2,1.176469E-2,-1.6020264E-2,4.521341E-2],"split_indices":[9,18,12,10,10,12,0,0,0,0,0,0,0],"split_type":[0,0,0,0,0,0,0,0,0,0,0,0,0],"sum_hessian":[4.5845618E2,3.8924182E2,6.9214355E1,3.613358E2,2.7906044E1,8.466229E0,6.0748123E1,2.5368018E2,1.0765561E2,2.42258E1,3.6802428E0,6.814157E0,1.6520729E0],"tree_param":{"num_deleted":"0","num_feature":"19","num_nodes":"13","size_leaf_vector":"1"}},{"base_weights":[2.9483285E-2,-4.428139E-1,5.254095E-1,-5.113842E-1,-1.3522443E-1,2.1023881E-1,7.4852884E-1,-2.5546538E-2,4.110031E-2,-1.1365379E-2,4.0047847E-2,2.0838764E-2,-1.0407039E-2,1.2263698E-3,3.3506297E-2],"categories":[],"categories_nodes":[],"categories_segments":[],"categories_sizes":[],"default_left":[0,0,0,0,0,0,0,0,0,0,0,0,0,0,0],"id":46,"left_children":[1,3,5,7,9,11,13,-1,-1,-1,-1,-1,-1,-1,-1],"loss_changes":[1.0211306E2,4.7027626E0,1.4944992E1,2.58364E1,5.949486E0,1.1476632E1,4.2023315E0,0E0,0E0,0E0,0E0,0E0,0E0,0E0,0E0],"parents":[2147483647,0,0,1,1,2,2,3,3,4,4,5,5,6,6],"right_children":[2,4,6,8,10,12,14,-1,-1,-1,-1,-1,-1,-1,-1],"split_conditions":[8.92E2,1.016E2,1.0075E4,1E0,1E0,1E0,2.1E1,-2.5546538E-2,4.110031E-2,-1.1365379E-2,4.0047847E-2,2.0838764E-2,-1.0407039E-2,1.2263698E-3,3.3506297E-2],"split_indices":[9,6,9,14,14,13,17,0,0,0,0,0,0,0,0],"split_type":[0,0,0,0,0,0,0,0,0,0,0,0,0,0,0],"sum_hessian":[4.3595383E2,2.232862E2,2.1266763E2,1.8255501E2,4.073118E1,8.817075E1,1.2449687E2,1.7158354E2,1.0971466E1,3.6249096E1,4.4820833E0,5.436731E1,3.3803448E1,7.650183E0,1.1684669E2],"tree_param":{"num_deleted":"0","num_feature":"19","num_nodes":"15","size_leaf_vector":"1"}},{"base_weights":[-1.8557903E-1,-3.0838597E-1,4.6477962E-1,1.534514E-1,-4.4098863E-1,8.2040656E-1,1.0786216E-1,1.520218E-2,-1.693469E-2,3.3352144E-2,-2.0383742E-2,3.7530847E-2,-2.7885584E-2,4.7687687E-2,-5.9356196E-3],"categories":[],"categories_nodes":[],"categories_segments":[],"categories_sizes":[],"default_left":[0,0,0,0,0,0,0,0,0,0,0,0,0,0,0],"id":47,"left_children":[1,3,5,7,9,11,13,-1,-1,-1,-1,-1,-1,-1,-1],"loss_changes":[3.3486786E1,2.1603065E1,8.442133E0,9.067448E0,1.4520283E1,3.497572E0,8.484484E0,0E0,0E0,0E0,0E0,0E0,0E0,0E0,0E0],"parents":[2147483647,0,0,1,1,2,2,3,3,4,4,5,5,6,6],"right_children":[2,4,6,8,10,12,14,-1,-1,-1,-1,-1,-1,-1,-1],"split_conditions":[6.7E1,6.753247E-1,9.1040355E-1,7.6E1,4.9E1,4.92E2,2.7E1,1.520218E-2,-1.693469E-2,3.3352144E-2,-2.0383742E-2,3.7530847E-2,-2.7885584E-2,4.7687687E-2,-5.9356196E-3],"split_indices":[18,0,0,12,18,12,10,0,0,0,0,0,0,0,0],"split_type":[0,0,0,0,0,0,0,0,0,0,0,0,0,0,0],"sum_hessian":[4.1928696E2,3.5270303E2,6.658391E1,7.866085E1,2.740422E2,3.3336452E1,3.3247456E1,5.7284027E1,2.1376822E1,9.223135E0,2.6481906E2,3.1826653E1,1.509799E0,6.5031857E0,2.6744268E1],"tree_param":{"num_deleted":"0","num_feature":"19","num_nodes":"15","size_leaf_vector":"1"}},{"base_weights":[1.14869006E-1,2.4863829E-1,-4.9958742E-1,-8.368212E-2,3.5330638E-1,-2.3352936E-1,-2.4564194E-2,-1.7402487E-2,1.493814E-3,1.7937016E-2,-2.7537221E-2,1.6585555E-2,-1.7104225E-2],"categories":[],"categories_nodes":[],"categories_segments":[],"categories_sizes":[],"default_left":[0,0,0,0,0,0,0,0,0,0,0,0,0],"id":48,"left_children":[1,3,5,7,9,11,-1,-1,-1,-1,-1,-1,-1],"loss_changes":[3.9322952E1,1.3669714E1,1.8945694E0,3.6979074E0,2.1839657E1,2.2186139E0,0E0,0E0,0E0,0E0,0E0,0E0,0E0],"parents":[2147483647,0,0,1,1,2,2,3,3,4,4,5,5],"right_children":[2,4,6,8,10,12,-1,-1,-1,-1,-1,-1,-1],"split_conditions":[1.3598E4,6.753247E-1,3.9144E4,2.2E1,1E0,5.7E1,-2.4564194E-2,-1.7402487E-2,1.493814E-3,1.7937016E-2,-2.7537221E-2,1.6585555E-2,-1.7104225E-2],"split_indices":[9,0,9,15,14,18,0,0,0,0,0,0,0],"split_type":[0,0,0,0,0,0,0,0,0,0,0,0,0],"sum_hessian":[4.7843326E2,3.9291272E2,8.552052E1,9.40879E1,2.9882483E2,2.0486069E1,6.503445E1,2.5008038E1,6.9079865E1,2.7874966E2,2.0075167E1,4.4064994E0,1.607957E1],"tree_param":{"num_deleted":"0","num_feature":"19","num_nodes":"13","size_leaf_vector":"1"}},{"base_weights":[9.072228E-3,-4.1946587E-1,5.186752E-1,-5.880969E-1,-2.7834985E-1,2.6648793E-1,7.7372044E-1,-2.5665678E-2,-1.36474045E-2,-1.5478431E-2,1.0997579E-2,2.2939928E-2,-5.325683E-3,3.3272214E-2,-1.2371586E-2],"categories":[],"categories_nodes":[],"categories_segments":[],"categories_sizes":[],"default_left":[0,0,0,0,0,0,1,0,0,0,0,0,0,0,0],"id":49,"left_children":[1,3,5,7,9,11,13,-1,-1,-1,-1,-1,-1,-1,-1],"loss_changes":[9.487881E1,5.6064796E0,1.2754177E1,5.941353E-1,6.1822557E0,1.0914854E1,1.7182579E0,0E0,0E0,0E0,0E0,0E0,0E0,0E0,0E0],"parents":[2147483647,0,0,1,1,2,2,3,3,4,4,5,5,6,6],"right_children":[2,4,6,8,10,12,14,-1,-1,-1,-1,-1,-1,-1,-1],"split_conditions":[1.355E3,-2.6E1,2.5307E4,6.34E2,4.6E1,1E0,4E0,-2.5665678E-2,-1.36474045E-2,-1.5478431E-2,1.0997579E-2,2.2939928E-2,-5.325683E-3,3.3272214E-2,-1.2371586E-2],"split_indices":[9,2,9,10,12,13,8,0,0,0,0,0,0,0,0],"split_type":[0,0,0,0,0,0,0,0,0,0,0,0,0,0,0],"sum_hessian":[4.3444867E2,2.3598413E2,1.9846454E2,1.0747454E2,1.2850958E2,9.981386E1,9.865068E1,9.941945E1,8.055095E0,1.1030028E2,1.8209307E1,5.845558E1,4.1358276E1,9.7180214E1,1.4704702E0],"tree_param":{"num_deleted":"0","num_feature":"19","num_nodes":"15","size_leaf_vector":"1"}},{"base_weights":[-1.646671E-1,3.807837E-2,-4.8986635E-1,-9.481413E-2,6.4310914E-1,4.449536E-2,-5.116001E-1,4.0191375E-2,-6.7186793E-3,3.0444035E-2,-3.026055E-2,-2.3095854E-2,5.0285305E-3],"categories":[],"categories_nodes":[],"categories_segments":[],"categories_sizes":[],"default_left":[0,0,0,0,0,0,0,0,0,0,0,0,0],"id":50,"left_children":[1,3,5,7,9,-1,11,-1,-1,-1,-1,-1,-1],"loss_changes":[2.728315E1,2.0495153E1,5.336117E0,1.4175019E1,4.98456E0,0E0,3.64003E0,0E0,0E0,0E0,0E0,0E0,0E0],"parents":[2147483647,0,0,1,1,2,2,3,3,4,4,6,6],"right_children":[2,4,6,8,10,-1,12,-1,-1,-1,-1,-1,-1],"split_conditions":[2.9E1,6.9E1,5.3E1,4.9E1,1E0,4.449536E-2,4E0,4.0191375E-2,-6.7186793E-3,3.0444035E-2,-3.026055E-2,-2.3095854E-2,5.0285305E-3],"split_indices":[12,18,18,18,14,0,3,0,0,0,0,0,0],"split_type":[0,0,0,0,0,0,0,0,0,0,0,0,0],"sum_hessian":[4.1373056E2,2.548286E2,1.5890198E2,2.0892445E2,4.5904144E1,2.1943796E0,1.567076E2,1.212688E1,1.9679758E2,4.3373093E1,2.5310535E0,1.4809497E2,8.612631E0],"tree_param":{"num_deleted":"0","num_feature":"19","num_nodes":"13","size_leaf_vector":"1"}},{"base_weights":[1.5226682E-1,2.6089644E-1,-5.321443E-1,3.1822082E-1,-2.7291888E-2,-2.5225233E-2,-2.3135954E-1,6.502508E-3,2.4254983E-2,-1.9199694E-2,5.0308008E-2],"categories":[],"categories_nodes":[],"categories_segments":[],"categories_sizes":[],"default_left":[0,0,1,0,0,0,0,0,0,0,0],"id":51,"left_children":[1,3,5,7,-1,-1,9,-1,-1,-1,-1],"loss_changes":[3.459983E1,2.092508E1,1.2715378E0,1.5943195E1,0E0,0E0,3.7107224E0,0E0,0E0,0E0,0E0],"parents":[2147483647,0,0,1,1,2,2,3,3,6,6],"right_children":[2,4,6,8,-1,-1,10,-1,-1,-1,-1],"split_conditions":[2.826E4,1E0,9E1,8.9E1,-2.7291888E-2,-2.5225233E-2,9.9658656E-1,6.502508E-3,2.4254983E-2,-1.9199694E-2,5.0308008E-2],"split_indices":[10,14,7,7,0,0,0,0,0,0,0],"split_type":[0,0,0,0,0,0,0,0,0,0,0],"sum_hessian":[4.654111E2,4.016738E2,6.3737305E1,3.7785492E2,2.3818895E1,5.212787E1,1.1609437E1,2.3101343E2,1.4684149E2,1.0037716E1,1.5717206E0],"tree_param":{"num_deleted":"0","num_feature":"19","num_nodes":"11","size_leaf_vector":"1"}},{"base_weights":[3.7552197E-2,-4.3911543E-1,5.183238E-1,-5.393397E-1,4.000843E-2,7.01716E-1,2.2516891E-1,-2.529126E-2,-1.2304257E-2,-4.483565E-3,3.132511E-2,-7.2056386E-3,3.1940654E-2],"categories":[],"categories_nodes":[],"categories_segments":[],"categories_sizes":[],"default_left":[0,0,0,0,0,0,0,0,0,0,0,0,0],"id":52,"left_children":[1,3,5,7,-1,9,11,-1,-1,-1,-1,-1,-1],"loss_changes":[9.78679E1,2.9849201E1,1.1421265E1,3.014E0,0E0,4.449562E0,1.7299541E1,0E0,0E0,0E0,0E0,0E0,0E0],"parents":[2147483647,0,0,1,1,2,2,3,3,5,5,6,6],"right_children":[2,4,6,8,-1,10,12,-1,-1,-1,-1,-1,-1],"split_conditions":[7.29E2,1E0,1E0,2.6E2,4.000843E-2,-3.29E1,2.01E2,-2.529126E-2,-1.2304257E-2,-4.483565E-3,3.132511E-2,-7.2056386E-3,3.1940654E-2],"split_indices":[9,14,13,9,0,2,1,0,0,0,0,0,0],"split_type":[0,0,0,0,0,0,0,0,0,0,0,0,0],"sum_hessian":[4.270487E2,2.1442911E2,2.1261961E2,2.0000665E2,1.44224615E1,1.3077269E2,8.184692E1,1.6030585E2,3.9700806E1,6.4538145E0,1.2431888E2,4.6943195E1,3.490372E1],"tree_param":{"num_deleted":"0","num_feature":"19","num_nodes":"13","size_leaf_vector":"1"}},{"base_weights":[-1.7443891E-1,-2.5872013E-1,6.229272E-1,7.9570735E-1,-3.0140367E-1,6.854505E-1,-2.7542766E-2,4.2278614E-2,3.4205737E-3,-5.4851193E-3,-2.2866717E-2,2.2932274E-2,4.2248238E-2],"categories":[],"categories_nodes":[],"categories_segments":[],"categories_sizes":[],"default_left":[0,0,0,0,0,0,0,0,0,0,0,0,0],"id":53,"left_children":[1,3,5,7,9,11,-1,-1,-1,-1,-1,-1,-1],"loss_changes":[2.764822E1,1.6744446E1,3.14073E0,2.1404066E0,1.4779762E1,1.6620255E0,0E0,0E0,0E0,0E0,0E0,0E0,0E0],"parents":[2147483647,0,0,1,1,2,2,3,3,4,4,5,5],"right_children":[2,4,6,8,10,12,-1,-1,-1,-1,-1,-1,-1],"split_conditions":[7.4E1,4.9E1,6.256E3,8.9E1,7.47E2,1E0,-2.7542766E-2,4.2278614E-2,3.4205737E-3,-5.4851193E-3,-2.2866717E-2,2.2932274E-2,4.2248238E-2],"split_indices":[18,18,9,7,9,11,0,0,0,0,0,0,0],"split_type":[0,0,0,0,0,0,0,0,0,0,0,0,0],"sum_hessian":[4.1146045E2,3.7213977E2,3.932066E1,1.4467352E1,3.5767242E2,3.7493797E1,1.8268602E0,1.1192153E1,3.2751985E0,2.0934923E2,1.483232E2,2.5995756E1,1.1498043E1],"tree_param":{"num_deleted":"0","num_feature":"19","num_nodes":"13","size_leaf_vector":"1"}},{"base_weights":[1.2760708E-1,2.4804902E-1,-4.221301E-1,-4.1612673E-1,3.0338478E-1,-5.21956E-1,-3.940072E-2,-2.214249E-2,1.3287075E-2,1.4874914E-2,-2.714704E-2,-2.309365E-2,4.2035664E-3,-1.2022533E-2,3.472196E-2],"categories":[],"categories_nodes":[],"categories_segments":[],"categories_sizes":[],"default_left":[0,0,1,0,0,0,0,0,0,0,0,0,0,0,0],"id":54,"left_children":[1,3,5,7,9,11,13,-1,-1,-1,-1,-1,-1,-1,-1],"loss_changes":[3.043488E1,1.3858179E1,3.1500387E0,2.326954E0,1.6427662E1,1.0779495E0,3.631809E0,0E0,0E0,0E0,0E0,0E0,0E0,0E0,0E0],"parents":[2147483647,0,0,1,1,2,2,3,3,4,4,5,5,6,6],"right_children":[2,4,6,8,10,12,14,-1,-1,-1,-1,-1,-1,-1,-1],"split_conditions":[9.404E3,2E1,3E0,1.069E3,1E0,5E0,9.9534017E-1,-2.214249E-2,1.3287075E-2,1.4874914E-2,-2.714704E-2,-2.309365E-2,4.2035664E-3,-1.2022533E-2,3.472196E-2],"split_indices":[10,17,8,10,14,4,0,0,0,0,0,0,0,0,0],"split_type":[0,0,0,0,0,0,0,0,0,0,0,0,0,0,0],"sum_hessian":[4.596826E2,3.7708646E2,8.259612E1,2.898544E1,3.48101E2,6.54878E1,1.7108322E1,2.5221478E1,3.763962E0,3.3074088E2,1.7360157E1,6.284047E1,2.6473284E0,1.3325863E1,3.7824595E0],"tree_param":{"num_deleted":"0","num_feature":"19","num_nodes":"15","size_leaf_vector":"1"}},{"base_weights":[3.4749933E-2,-3.295847E-1,5.52276E-1,-4.5536426E-1,3.8055316E-2,7.5185096E-1,2.7480307E-1,-2.2792181E-2,1.8835533E-2,-1.6531054E-2,3.3730216E-2,-8.469386E-3,2.8674247E-2],"categories":[],"categories_nodes":[],"categories_segments":[],"categories_sizes":[],"default_left":[0,0,0,0,0,0,0,0,0,0,0,0,0],"id":55,"left_children":[1,3,5,7,-1,9,11,-1,-1,-1,-1,-1,-1],"loss_changes":[8.007755E1,3.8650818E1,9.705849E0,1.751384E1,0E0,5.727257E0,1.4193588E1,0E0,0E0,0E0,0E0,0E0,0E0],"parents":[2147483647,0,0,1,1,2,2,3,3,5,5,6,6],"right_children":[2,4,6,8,-1,10,12,-1,-1,-1,-1,-1,-1],"split_conditions":[3.498E2,1E0,8.9E1,9.041E3,3.8055316E-2,2.1E1,5.7275E3,-2.2792181E-2,1.8835533E-2,-1.6531054E-2,3.3730216E-2,-8.469386E-3,2.8674247E-2],"split_indices":[6,14,7,9,0,15,6,0,0,0,0,0,0],"split_type":[0,0,0,0,0,0,0,0,0,0,0,0,0],"sum_hessian":[4.246793E2,2.49215E2,1.754643E2,2.2615675E2,2.3058237E1,1.0203443E2,7.342986E1,2.0653722E2,1.961954E1,4.181029E0,9.78534E1,3.3794727E1,3.9635136E1],"tree_param":{"num_deleted":"0","num_feature":"19","num_nodes":"13","size_leaf_vector":"1"}},{"base_weights":[-1.6572843E-1,-2.4641767E-1,5.5583364E-1,2.7159956E-1,-4.017119E-1,8.608665E-1,1.4581557E-1,3.35168E-2,3.3075418E-3,5.4294495E-3,-2.0640342E-2,4.01578E-2,9.803225E-3,3.0017532E-2,-7.40618E-3],"categories":[],"categories_nodes":[],"categories_segments":[],"categories_sizes":[],"default_left":[0,0,0,0,0,0,0,0,0,0,0,0,0,0,0],"id":56,"left_children":[1,3,5,7,9,11,13,-1,-1,-1,-1,-1,-1,-1,-1],"loss_changes":[2.3675438E1,2.9428186E1,5.103813E0,8.528089E0,1.3198532E1,1.3504066E0,3.18974E0,0E0,0E0,0E0,0E0,0E0,0E0,0E0,0E0],"parents":[2147483647,0,0,1,1,2,2,3,3,4,4,5,5,6,6],"right_children":[2,4,6,8,10,12,14,-1,-1,-1,-1,-1,-1,-1,-1],"split_conditions":[7.4E1,6.753247E-1,9.355693E-1,5.6E1,2.1E1,7.24E2,2.1E1,3.35168E-2,3.3075418E-3,5.4294495E-3,-2.0640342E-2,4.01578E-2,9.803225E-3,3.0017532E-2,-7.40618E-3],"split_indices":[18,0,0,18,17,10,15,0,0,0,0,0,0,0,0],"split_type":[0,0,0,0,0,0,0,0,0,0,0,0,0,0,0],"sum_hessian":[4.066846E2,3.6579495E2,4.0889668E1,8.435237E1,2.8144257E2,2.3430887E1,1.7458778E1,2.2689394E1,6.166298E1,4.0156593E1,2.4128598E2,2.0405155E1,3.0257313E0,6.330538E0,1.1128242E1],"tree_param":{"num_deleted":"0","num_feature":"19","num_nodes":"15","size_leaf_vector":"1"}},{"base_weights":[1.5779118E-1,2.5509E-1,-5.0135636E-1,-3.3303982E-1,3.2098174E-1,8.198738E-2,-2.4152912E-2,-2.422744E-2,-6.003434E-3,1.9880941E-2,3.9138463E-3,-2.6111083E-2,6.17491E-2],"categories":[],"categories_nodes":[],"categories_segments":[],"categories_sizes":[],"default_left":[0,0,0,0,0,0,0,0,0,0,0,0,0],"id":57,"left_children":[1,3,5,7,9,11,-1,-1,-1,-1,-1,-1,-1],"loss_changes":[2.9975273E1,1.5784582E1,2.5335102E0,1.8851681E0,1.2612255E1,6.4225593E0,0E0,0E0,0E0,0E0,0E0,0E0,0E0],"parents":[2147483647,0,0,1,1,2,2,3,3,4,4,5,5],"right_children":[2,4,6,8,10,12,-1,-1,-1,-1,-1,-1,-1],"split_conditions":[2.5307E4,2.1E1,1.7E1,7.1E1,3.3E2,8.4E1,-2.4152912E-2,-2.422744E-2,-6.003434E-3,1.9880941E-2,3.9138463E-3,-2.6111083E-2,6.17491E-2],"split_indices":[9,15,12,9,9,7,0,0,0,0,0,0,0],"split_type":[0,0,0,0,0,0,0,0,0,0,0,0,0],"sum_hessian":[4.6741486E2,4.0730774E2,6.0107098E1,4.1019184E1,3.6628857E2,6.596976E0,5.3510124E1,1.803375E1,2.2985432E1,2.2031541E2,1.4597314E2,4.373162E0,2.223814E0],"tree_param":{"num_deleted":"0","num_feature":"19","num_nodes":"13","size_leaf_vector":"1"}},{"base_weights":[1.0489397E-2,-4.3188265E-1,4.7401235E-1,-5.267529E-1,3.8181156E-2,1.9711676E-1,6.6531444E-1,-2.4325317E-2,1.1888132E-3,1.7880188E-2,-9.93238E-3,-3.8989816E-2,2.88855E-2],"categories":[],"categories_nodes":[],"categories_segments":[],"categories_sizes":[],"default_left":[0,0,0,0,0,0,0,0,0,0,0,0,0],"id":58,"left_children":[1,3,5,7,-1,9,11,-1,-1,-1,-1,-1,-1],"loss_changes":[8.358014E1,2.647828E1,1.0535091E1,5.4967995E0,0E0,8.0124035E0,3.840973E0,0E0,0E0,0E0,0E0,0E0,0E0],"parents":[2147483647,0,0,1,1,2,2,3,3,5,5,6,6],"right_children":[2,4,6,8,-1,10,12,-1,-1,-1,-1,-1,-1],"split_conditions":[9.15E2,1E0,1.0075E4,3.259E2,3.8181156E-2,1E0,-1E0,-2.4325317E-2,1.1888132E-3,1.7880188E-2,-9.93238E-3,-3.8989816E-2,2.88855E-2],"split_indices":[10,14,9,6,0,13,3,0,0,0,0,0,0],"split_type":[0,0,0,0,0,0,0,0,0,0,0,0,0],"sum_hessian":[4.076025E2,2.085485E2,1.99054E2,1.9475299E2,1.3795501E1,8.1355644E1,1.1769836E2,1.784366E2,1.6316393E1,5.3353745E1,2.8001898E1,1.4906745E0,1.1620768E2],"tree_param":{"num_deleted":"0","num_feature":"19","num_nodes":"13","size_leaf_vector":"1"}},{"base_weights":[-1.5110505E-1,1.7633964E-1,-3.6516696E-1,4.065738E-1,-2.5010273E-1,3.4410173E-1,-4.727183E-1,1.2424458E-2,4.4378795E-2,2.8964836E-2,-1.4276535E-2,2.5529558E-2,-2.1660432E-2,-4.5643435E-3,-2.256288E-2],"categories":[],"categories_nodes":[],"categories_segments":[],"categories_sizes":[],"default_left":[0,0,0,0,0,0,0,0,0,0,0,0,0,0,0],"id":59,"left_children":[1,3,5,7,9,11,13,-1,-1,-1,-1,-1,-1,-1,-1],"loss_changes":[2.8255955E1,1.5644825E1,1.8596706E1,7.4574833E0,4.651287E0,7.218954E0,4.8517036E0,0E0,0E0,0E0,0E0,0E0,0E0,0E0,0E0],"parents":[2147483647,0,0,1,1,2,2,3,3,4,4,5,5,6,6],"right_children":[2,4,6,8,10,12,14,-1,-1,-1,-1,-1,-1,-1,-1],"split_conditions":[8.5164833E-1,3.6E1,2.1E1,4E0,3.3333334E-1,4.1E1,3E0,1.2424458E-2,4.4378795E-2,2.8964836E-2,-1.4276535E-2,2.5529558E-2,-2.1660432E-2,-4.5643435E-3,-2.256288E-2],"split_indices":[0,12,15,4,0,1,1,0,0,0,0,0,0,0,0],"split_type":[0,0,0,0,0,0,0,0,0,0,0,0,0,0,0],"sum_hessian":[4.0308652E2,1.5932475E2,2.4376175E2,1.0348021E2,5.584455E1,3.2083187E1,2.1167856E2,8.8277954E1,1.520225E1,4.822417E0,5.1022133E1,2.4589148E1,7.494041E0,3.1227787E1,1.8045078E2],"tree_param":{"num_deleted":"0","num_feature":"19","num_nodes":"15","size_leaf_vector":"1"}},{"base_weights":[1.2535018E-1,2.2123648E-1,-5.037007E-1,-3.0678037E-1,2.7553952E-1,-2.4658946E-2,-1.3774197E-1,-2.3789342E-2,-3.9931857E-3,1.4384188E-2,-8.2080215E-3,6.301119E-2,-1.8207205E-2],"categories":[],"categories_nodes":[],"categories_segments":[],"categories_sizes":[],"default_left":[0,0,1,0,0,0,0,0,0,0,0,0,0],"id":60,"left_children":[1,3,5,7,9,-1,11,-1,-1,-1,-1,-1,-1],"loss_changes":[2.8700312E1,1.184004E1,1.8757563E0,2.098625E0,1.1624882E1,0E0,5.5344872E0,0E0,0E0,0E0,0E0,0E0,0E0],"parents":[2147483647,0,0,1,1,2,2,3,3,4,4,6,6],"right_children":[2,4,6,8,10,-1,12,-1,-1,-1,-1,-1,-1],"split_conditions":[2.5307E4,2.1E1,9E1,7.1E1,1.76E2,-2.4658946E-2,2.3E0,-2.3789342E-2,-3.9931857E-3,1.4384188E-2,-8.2080215E-3,6.301119E-2,-1.8207205E-2],"split_indices":[9,15,7,9,12,0,6,0,0,0,0,0,0],"split_type":[0,0,0,0,0,0,0,0,0,0,0,0,0],"sum_hessian":[4.758625E2,4.1293622E2,6.2926247E1,3.8489048E1,3.7444717E2,5.140909E1,1.1517158E1,1.7334393E1,2.1154654E1,3.284049E2,4.604226E1,1.7524565E0,9.764702E0],"tree_param":{"num_deleted":"0","num_feature":"19","num_nodes":"13","size_leaf_vector":"1"}},{"base_weights":[5.109094E-3,-3.952428E-1,4.518649E-1,-4.9572274E-1,3.774838E-2,1.919965E-1,7.178174E-1,-2.5181342E-2,-9.007063E-3,2.1145346E-3,3.6855135E-2,-1.6508387E-2,3.1935487E-2],"categories":[],"categories_nodes":[],"categories_segments":[],"categories_sizes":[],"default_left":[0,0,0,0,0,0,0,0,0,0,0,0,0],"id":61,"left_children":[1,3,5,7,-1,9,11,-1,-1,-1,-1,-1,-1],"loss_changes":[7.396784E1,2.8298569E1,1.349918E1,5.8183594E0,0E0,9.567478E0,4.337593E0,0E0,0E0,0E0,0E0,0E0,0E0],"parents":[2147483647,0,0,1,1,2,2,3,3,5,5,6,6],"right_children":[2,4,6,8,-1,10,12,-1,-1,-1,-1,-1,-1],"split_conditions":[1.355E3,1E0,2.5307E4,2.6E2,3.774838E-2,1E0,5.3E1,-2.5181342E-2,-9.007063E-3,2.1145346E-3,3.6855135E-2,-1.6508387E-2,3.1935487E-2],"split_indices":[9,14,9,9,0,14,18,0,0,0,0,0,0],"split_type":[0,0,0,0,0,0,0,0,0,0,0,0,0],"sum_hessian":[4.1354468E2,2.1808734E2,1.9545735E2,2.0235344E2,1.5733906E1,9.8880844E1,9.657651E1,1.4849483E2,5.3858616E1,8.189769E1,1.6983149E1,3.3850071E0,9.3191505E1],"tree_param":{"num_deleted":"0","num_feature":"19","num_nodes":"13","size_leaf_vector":"1"}},{"base_weights":[-1.4961053E-1,-2.3663872E-1,6.322585E-1,2.1787857E-1,-3.8096207E-1,8.713995E-1,2.4248858E-1,1.2081455E-2,-2.6839612E-2,-9.0305967E-4,-2.0796547E-2,3.862276E-2,6.92081E-4,3.7880786E-2,-7.276948E-3],"categories":[],"categories_nodes":[],"categories_segments":[],"categories_sizes":[],"default_left":[0,0,0,0,0,0,0,0,0,0,0,0,0,0,0],"id":62,"left_children":[1,3,5,7,9,11,13,-1,-1,-1,-1,-1,-1,-1,-1],"loss_changes":[2.7166634E1,2.357238E1,3.7149792E0,5.10354E0,1.10565605E1,9.563713E-1,4.1604257E0,0E0,0E0,0E0,0E0,0E0,0E0,0E0,0E0],"parents":[2147483647,0,0,1,1,2,2,3,3,4,4,5,5,6,6],"right_children":[2,4,6,8,10,12,14,-1,-1,-1,-1,-1,-1,-1,-1],"split_conditions":[7.4E1,6.753247E-1,9.355693E-1,2.2268E3,5.6E1,6.246E2,2.1E1,1.2081455E-2,-2.6839612E-2,-9.0305967E-4,-2.0796547E-2,3.862276E-2,6.92081E-4,3.7880786E-2,-7.276948E-3],"split_indices":[18,0,0,6,9,6,15,0,0,0,0,0,0,0,0],"split_type":[0,0,0,0,0,0,0,0,0,0,0,0,0,0,0],"sum_hessian":[3.9929858E2,3.5931827E2,3.9980316E1,8.658013E1,2.7273816E2,2.4759983E1,1.5220332E1,8.013053E1,6.449595E0,6.51627E1,2.0757545E2,2.3494246E1,1.2657378E0,5.9033513E0,9.31698E0],"tree_param":{"num_deleted":"0","num_feature":"19","num_nodes":"15","size_leaf_vector":"1"}},{"base_weights":[1.06102146E-1,1.9942528E-1,-5.394739E-1,2.5112516E-1,-2.6625987E-2,-4.4389486E-2,-2.463851E-2,1.4005098E-2,-1.1247881E-2,3.033658E-2,-2.6831176E-2],"categories":[],"categories_nodes":[],"categories_segments":[],"categories_sizes":[],"default_left":[0,0,0,0,0,0,0,0,0,0,0],"id":63,"left_children":[1,3,5,7,-1,9,-1,-1,-1,-1,-1],"loss_changes":[2.7405016E1,1.708608E1,1.2881222E0,1.5785927E1,0E0,2.201987E0,0E0,0E0,0E0,0E0,0E0],"parents":[2147483647,0,0,1,1,2,2,3,3,5,5],"right_children":[2,4,6,8,-1,10,-1,-1,-1,-1,-1],"split_conditions":[2.5307E4,1E0,2.1E1,6.9E1,-2.6625987E-2,5.5024E4,-2.463851E-2,1.4005098E-2,-1.1247881E-2,3.033658E-2,-2.6831176E-2],"split_indices":[9,14,15,18,0,9,0,0,0,0,0],"split_type":[0,0,0,0,0,0,0,0,0,0,0],"sum_hessian":[4.54927E2,3.974848E2,5.7442207E1,3.7423312E2,2.3251682E1,4.8558674E0,5.258634E1,3.2344537E2,5.0787746E1,2.112554E0,2.743313E0],"tree_param":{"num_deleted":"0","num_feature":"19","num_nodes":"11","size_leaf_vector":"1"}},{"base_weights":[2.5487972E-2,-4.0179467E-1,4.6148485E-1,-4.9722216E-1,3.723986E-2,2.6364276E-1,7.1992195E-1,-2.3385037E-2,2.851869E-4,2.1117497E-2,-7.2008544E-3,3.237629E-2,1.9132571E-2],"categories":[],"categories_nodes":[],"categories_segments":[],"categories_sizes":[],"default_left":[0,0,0,0,0,0,1,0,0,0,0,0,0],"id":64,"left_children":[1,3,5,7,-1,9,11,-1,-1,-1,-1,-1,-1],"loss_changes":[7.576363E1,2.5201424E1,1.0282078E1,5.5957527E0,0E0,1.1787649E1,1.1177711E0,0E0,0E0,0E0,0E0,0E0,0E0],"parents":[2147483647,0,0,1,1,2,2,3,3,5,5,6,6],"right_children":[2,4,6,8,-1,10,12,-1,-1,-1,-1,-1,-1],"split_conditions":[9.15E2,1E0,3.6978E4,6.1E2,3.723986E-2,9.1E1,3E0,-2.3385037E-2,2.851869E-4,2.1117497E-2,-7.2008544E-3,3.237629E-2,1.9132571E-2],"split_indices":[10,14,10,9,0,7,8,0,0,0,0,0,0],"split_type":[0,0,0,0,0,0,0,0,0,0,0,0,0],"sum_hessian":[4.0668076E2,2.0538132E2,2.0129945E2,1.9120233E2,1.4178986E1,1.14041245E2,8.725822E1,1.7148427E2,1.971805E1,7.373058E1,4.0310658E1,7.368302E1,1.3575192E1],"tree_param":{"num_deleted":"0","num_feature":"19","num_nodes":"13","size_leaf_vector":"1"}},{"base_weights":[-1.3440767E-1,7.174516E-2,-4.3050712E-1,4.4707218E-1,-1.3452339E-1,8.554726E-1,-4.8028216E-1,2.0999907E-2,-2.9132122E-2,2.1440232E-2,-1.1462228E-2,5.2964922E-2,1.4495529E-2,-6.9731427E-3,-2.4034787E-2],"categories":[],"categories_nodes":[],"categories_segments":[],"categories_sizes":[],"default_left":[0,0,0,0,0,0,0,0,0,0,0,0,0,0,0],"id":65,"left_children":[1,3,5,7,9,11,13,-1,-1,-1,-1,-1,-1,-1,-1],"loss_changes":[2.3954645E1,1.7910196E1,1.0307302E1,4.8136024E0,1.3217571E1,1.2152586E0,4.403244E0,0E0,0E0,0E0,0E0,0E0,0E0,0E0,0E0],"parents":[2147483647,0,0,1,1,2,2,3,3,4,4,5,5,6,6],"right_children":[2,4,6,8,10,12,14,-1,-1,-1,-1,-1,-1,-1,-1],"split_conditions":[2.1E1,7.8846157E-1,3.3333334E-1,1E0,2.1E1,5.8E1,7.021746E-1,2.0999907E-2,-2.9132122E-2,2.1440232E-2,-1.1462228E-2,5.2964922E-2,1.4495529E-2,-6.9731427E-3,-2.4034787E-2],"split_indices":[12,0,0,14,15,12,0,0,0,0,0,0,0,0,0],"split_type":[0,0,0,0,0,0,0,0,0,0,0,0,0,0,0],"sum_hessian":[3.9236734E2,2.3129839E2,1.6106895E2,8.204869E1,1.492497E2,5.9929705E0,1.5507597E2,7.850647E1,3.542222E0,2.6279196E1,1.229705E2,3.3417625E0,2.651208E0,3.4624084E1,1.204519E2],"tree_param":{"num_deleted":"0","num_feature":"19","num_nodes":"15","size_leaf_vector":"1"}},{"base_weights":[1.266916E-1,2.287436E-1,-3.9969724E-1,2.657284E-1,-3.1160358E-2,-2.3930073E-2,9.811635E-2,1.3070028E-2,-2.649426E-2,3.5829995E-2,-1.2764007E-2],"categories":[],"categories_nodes":[],"categories_segments":[],"categories_sizes":[],"default_left":[0,0,1,0,0,0,0,0,0,0,0],"id":66,"left_children":[1,3,5,7,-1,-1,9,-1,-1,-1,-1],"loss_changes":[2.4461979E1,1.3660807E1,6.205902E0,1.4658983E1,0E0,0E0,5.646699E0,0E0,0E0,0E0,0E0],"parents":[2147483647,0,0,1,1,2,2,3,3,6,6],"right_children":[2,4,6,8,-1,-1,10,-1,-1,-1,-1],"split_conditions":[9.404E3,8.3E1,9E1,1E0,-3.1160358E-2,-2.3930073E-2,1.01E2,1.3070028E-2,-2.649426E-2,3.5829995E-2,-1.2764007E-2],"split_indices":[10,18,7,14,0,0,12,0,0,0,0],"split_type":[0,0,0,0,0,0,0,0,0,0,0],"sum_hessian":[4.553948E2,3.8146088E2,7.3933914E1,3.6744254E2,1.401835E1,5.5254208E1,1.8679705E1,3.5001166E2,1.743088E1,6.5029106E0,1.2176793E1],"tree_param":{"num_deleted":"0","num_feature":"19","num_nodes":"11","size_leaf_vector":"1"}},{"base_weights":[1.79972E-2,-4.2570135E-1,4.2814463E-1,-5.7682174E-1,-3.0909678E-1,2.257372E-1,6.779631E-1,-2.522E-2,1.5289846E-2,-1.88533E-2,3.60521E-2,2.0518932E-2,-6.6861967E-3,-1.6908085E-2,3.0251125E-2],"categories":[],"categories_nodes":[],"categories_segments":[],"categories_sizes":[],"default_left":[0,0,0,0,0,0,0,0,0,0,0,0,0,0,0],"id":67,"left_children":[1,3,5,7,9,11,13,-1,-1,-1,-1,-1,-1,-1,-1],"loss_changes":[7.33597E1,3.4025269E0,1.0583328E1,1.7440224E0,1.7644743E1,1.1639204E1,4.0806923E0,0E0,0E0,0E0,0E0,0E0,0E0,0E0,0E0],"parents":[2147483647,0,0,1,1,2,2,3,3,4,4,5,5,6,6],"right_children":[2,4,6,8,10,12,14,-1,-1,-1,-1,-1,-1,-1,-1],"split_conditions":[7.82E2,-2.6E1,2.5307E4,6.25E2,1E0,1E0,5.3E1,-2.522E-2,1.5289846E-2,-1.88533E-2,3.60521E-2,2.0518932E-2,-6.6861967E-3,-1.6908085E-2,3.0251125E-2],"split_indices":[9,2,9,10,14,13,18,0,0,0,0,0,0,0,0],"split_type":[0,0,0,0,0,0,0,0,0,0,0,0,0,0,0],"sum_hessian":[4.0311063E2,1.9362346E2,2.0948718E2,8.428849E1,1.0933496E2,1.1574979E2,9.37374E1,8.237388E1,1.9146131E0,9.772485E1,1.1610108E1,6.891475E1,4.683504E1,3.363168E0,9.037423E1],"tree_param":{"num_deleted":"0","num_feature":"19","num_nodes":"15","size_leaf_vector":"1"}},{"base_weights":[-1.4036569E-1,-2.5903356E-1,4.1355333E-1,1.8615247E-1,-4.048086E-1,7.437458E-1,1.01135775E-1,1.8967908E-2,-1.069084E-2,3.5575923E-2,-1.8572228E-2,3.6501102E-2,2.6322831E-3,4.8963882E-2,-5.8037355E-3],"categories":[],"categories_nodes":[],"categories_segments":[],"categories_sizes":[],"default_left":[0,0,0,0,0,0,0,0,0,0,0,0,0,0,0],"id":68,"left_children":[1,3,5,7,9,11,13,-1,-1,-1,-1,-1,-1,-1,-1],"loss_changes":[2.5640026E1,2.0852404E1,7.0896244E0,9.213076E0,1.0930565E1,2.7900524E0,8.982344E0,0E0,0E0,0E0,0E0,0E0,0E0,0E0,0E0],"parents":[2147483647,0,0,1,1,2,2,3,3,4,4,5,5,6,6],"right_children":[2,4,6,8,10,12,14,-1,-1,-1,-1,-1,-1,-1,-1],"split_conditions":[6.7E1,6.753247E-1,9.1040355E-1,2.9E1,4.8E1,7.24E2,2.6E1,1.8967908E-2,-1.069084E-2,3.5575923E-2,-1.8572228E-2,3.6501102E-2,2.6322831E-3,4.8963882E-2,-5.8037355E-3],"split_indices":[18,0,0,12,18,10,10,0,0,0,0,0,0,0,0],"split_type":[0,0,0,0,0,0,0,0,0,0,0,0,0,0,0],"sum_hessian":[3.9008438E2,3.2127597E2,6.88084E1,7.923327E1,2.4204271E2,3.343517E1,3.5373234E1,4.952025E1,2.971302E1,6.7969317E0,2.3524577E2,2.8311953E1,5.123217E0,6.505796E0,2.886744E1],"tree_param":{"num_deleted":"0","num_feature":"19","num_nodes":"15","size_leaf_vector":"1"}},{"base_weights":[1.17921904E-1,2.0115015E-1,-4.9286678E-1,2.4628548E-1,-4.242124E-1,-9.297389E-2,-2.3289625E-2,1.2286593E-2,-2.6299126E-2,-2.6778167E-2,8.075181E-3,-2.6241815E-2,6.295295E-2],"categories":[],"categories_nodes":[],"categories_segments":[],"categories_sizes":[],"default_left":[0,0,0,0,0,0,0,0,0,0,0,0,0],"id":69,"left_children":[1,3,5,7,9,11,-1,-1,-1,-1,-1,-1,-1],"loss_changes":[2.2868721E1,1.1175291E1,1.2897196E0,1.460853E1,3.4767847E0,5.945672E0,0E0,0E0,0E0,0E0,0E0,0E0,0E0],"parents":[2147483647,0,0,1,1,2,2,3,3,4,4,5,5],"right_children":[2,4,6,8,10,12,-1,-1,-1,-1,-1,-1,-1],"split_conditions":[2.5307E4,1E0,1.7E1,1E0,9.6128446E-1,1.7E0,-2.3289625E-2,1.2286593E-2,-2.6299126E-2,-2.6778167E-2,8.075181E-3,-2.6241815E-2,6.295295E-2],"split_indices":[9,11,12,14,0,6,0,0,0,0,0,0,0],"split_type":[0,0,0,0,0,0,0,0,0,0,0,0,0],"sum_hessian":[4.4991406E2,3.9597528E2,5.3938786E1,3.6933624E2,2.6639048E1,7.0701766E0,4.686861E1,3.5103174E2,1.8304483E1,1.9840136E1,6.798913E0,5.30635E0,1.7638267E0],"tree_param":{"num_deleted":"0","num_feature":"19","num_nodes":"13","size_leaf_vector":"1"}},{"base_weights":[1.0014679E-2,-3.0583724E-1,4.3989718E-1,-4.3072304E-1,3.553816E-2,-2.080357E-2,5.162236E-1,-2.3377016E-2,-0E0,2.9371012E-2,1.156497E-2],"categories":[],"categories_nodes":[],"categories_segments":[],"categories_sizes":[],"default_left":[0,0,0,0,0,0,0,0,0,0,0],"id":70,"left_children":[1,3,5,7,-1,-1,9,-1,-1,-1,-1],"loss_changes":[5.505159E1,3.3549896E1,1.2241524E1,1.1290333E1,0E0,0E0,6.938816E0,0E0,0E0,0E0,0E0],"parents":[2147483647,0,0,1,1,2,2,3,3,6,6],"right_children":[2,4,6,8,-1,-1,10,-1,-1,-1,-1],"split_conditions":[4.5E1,1E0,-3.38E1,1.282E3,3.553816E-2,-2.080357E-2,9E1,-2.3377016E-2,-0E0,2.9371012E-2,1.156497E-2],"split_indices":[12,14,2,9,0,0,7,0,0,0,0],"split_type":[0,0,0,0,0,0,0,0,0,0,0],"sum_hessian":[4.054345E2,2.3370163E2,1.7173288E2,2.108111E2,2.2890532E1,1.2964842E1,1.5876804E2,1.6359918E2,4.7211914E1,9.071802E1,6.805002E1],"tree_param":{"num_deleted":"0","num_feature":"19","num_nodes":"11","size_leaf_vector":"1"}},{"base_weights":[-1.15110174E-1,2.1878985E-1,-3.0028465E-1,4.5726722E-1,-1.8610863E-1,3.574768E-1,-4.0194628E-1,1.4623677E-2,4.2945825E-2,5.6614187E-2,-9.691287E-3,2.1088624E-2,-2.6726501E-2,-1.822649E-2,4.5233194E-2],"categories":[],"categories_nodes":[],"categories_segments":[],"categories_sizes":[],"default_left":[0,0,0,0,0,0,0,0,0,0,0,0,0,0,0],"id":71,"left_children":[1,3,5,7,9,11,13,-1,-1,-1,-1,-1,-1,-1,-1],"loss_changes":[2.350796E1,1.3097359E1,1.6355692E1,5.2687244E0,3.372457E0,4.649961E0,9.627064E0,0E0,0E0,0E0,0E0,0E0,0E0,0E0,0E0],"parents":[2147483647,0,0,1,1,2,2,3,3,4,4,5,5,6,6],"right_children":[2,4,6,8,10,12,14,-1,-1,-1,-1,-1,-1,-1,-1],"split_conditions":[7.8846157E-1,2.9E1,2.1E1,4E0,5E1,2.8E1,8.3E1,1.4623677E-2,4.2945825E-2,5.6614187E-2,-9.691287E-3,2.1088624E-2,-2.6726501E-2,-1.822649E-2,4.5233194E-2],"split_indices":[0,12,15,4,18,12,18,0,0,0,0,0,0,0,0],"split_type":[0,0,0,0,0,0,0,0,0,0,0,0,0,0,0],"sum_hessian":[3.8018625E2,1.3560783E2,2.4457843E2,8.535823E1,5.0249596E1,3.2726788E1,2.1185164E2,7.1406494E1,1.3951742E1,1.3957546E0,4.8853844E1,2.8607807E1,4.1189823E0,2.0752856E2,4.323078E0],"tree_param":{"num_deleted":"0","num_feature":"19","num_nodes":"15","size_leaf_vector":"1"}},{"base_weights":[1.0894419E-1,1.9448583E-1,-5.080442E-1,-3.8594535E-1,2.5689626E-1,1.4096828E-2,-2.3326267E-2,-7.290904E-3,-2.2861242E-2,1.2489934E-2,-2.60669E-2,2.6346743E-2,-2.6918015E-2],"categories":[],"categories_nodes":[],"categories_segments":[],"categories_sizes":[],"default_left":[0,0,0,0,0,0,0,0,0,0,0,0,0],"id":72,"left_children":[1,3,5,7,9,11,-1,-1,-1,-1,-1,-1,-1],"loss_changes":[2.3764315E1,1.4326158E1,1.3162155E0,1.2738743E0,1.2399517E1,1.7600179E0,0E0,0E0,0E0,0E0,0E0,0E0,0E0],"parents":[2147483647,0,0,1,1,2,2,3,3,4,4,5,5],"right_children":[2,4,6,8,10,12,-1,-1,-1,-1,-1,-1,-1],"split_conditions":[2.5307E4,2.1E1,2.1E1,5.7E1,1E0,1.88E2,-2.3326267E-2,-7.290904E-3,-2.2861242E-2,1.2489934E-2,-2.60669E-2,2.6346743E-2,-2.6918015E-2],"split_indices":[9,15,15,18,14,1,0,0,0,0,0,0,0],"split_type":[0,0,0,0,0,0,0,0,0,0,0,0,0],"sum_hessian":[4.5032108E2,3.9550485E2,5.4816227E1,3.8380688E1,3.5712415E2,4.4021025E0,5.0414124E1,1.631367E1,2.2067019E1,3.4166797E2,1.5456188E1,2.2818024E0,2.1202998E0],"tree_param":{"num_deleted":"0","num_feature":"19","num_nodes":"13","size_leaf_vector":"1"}},{"base_weights":[2.9354783E-2,-3.6979404E-1,4.4929692E-1,-4.756797E-1,3.531616E-2,2.55944E-1,6.613679E-1,-2.4166485E-2,-9.263322E-3,2.0825805E-2,-7.397855E-3,-1.4126603E-2,2.9225765E-2],"categories":[],"categories_nodes":[],"categories_segments":[],"categories_sizes":[],"default_left":[0,0,0,0,0,0,0,0,0,0,0,0,0],"id":73,"left_children":[1,3,5,7,-1,9,11,-1,-1,-1,-1,-1,-1],"loss_changes":[6.593154E1,2.5796635E1,7.850357E0,4.643547E0,0E0,1.0328604E1,2.9685936E0,0E0,0E0,0E0,0E0,0E0,0E0],"parents":[2147483647,0,0,1,1,2,2,3,3,5,5,6,6],"right_children":[2,4,6,8,-1,10,12,-1,-1,-1,-1,-1,-1],"split_conditions":[1.355E3,1E0,2.5307E4,2.73E2,3.531616E-2,9.1E1,5.3E1,-2.4166485E-2,-9.263322E-3,2.0825805E-2,-7.397855E-3,-1.4126603E-2,2.9225765E-2],"split_indices":[9,14,9,9,0,7,18,0,0,0,0,0,0],"split_type":[0,0,0,0,0,0,0,0,0,0,0,0,0],"sum_hessian":[3.9333118E2,2.0164586E2,1.916853E2,1.8540814E2,1.6237724E1,1.0029542E2,9.1389885E1,1.3397163E2,5.1436504E1,6.461071E1,3.5684704E1,2.878646E0,8.851124E1],"tree_param":{"num_deleted":"0","num_feature":"19","num_nodes":"13","size_leaf_vector":"1"}},{"base_weights":[-1.384022E-1,1.8321623E-1,-3.1697917E-1,2.7325574E-1,-2.3537034E-2,2.924607E-1,-4.0979204E-1,7.6436466E-3,3.6685947E-2,1.9661063E-2,-2.7115453E-2,-1.8553667E-2,3.8172018E-2],"categories":[],"categories_nodes":[],"categories_segments":[],"categories_sizes":[],"default_left":[0,0,0,0,0,0,0,0,0,0,0,0,0],"id":74,"left_children":[1,3,5,7,-1,9,11,-1,-1,-1,-1,-1,-1],"loss_changes":[2.148642E1,8.919475E0,1.3607962E1,6.522642E0,0E0,5.186576E0,8.439514E0,0E0,0E0,0E0,0E0,0E0,0E0],"parents":[2147483647,0,0,1,1,2,2,3,3,5,5,6,6],"right_children":[2,4,6,8,-1,10,12,-1,-1,-1,-1,-1,-1],"split_conditions":[7.8846157E-1,4.92E2,2.1E1,4E0,-2.3537034E-2,1E0,8.3E1,7.6436466E-3,3.6685947E-2,1.9661063E-2,-2.7115453E-2,-1.8553667E-2,3.8172018E-2],"split_indices":[0,12,15,4,0,14,18,0,0,0,0,0,0],"split_type":[0,0,0,0,0,0,0,0,0,0,0,0,0],"sum_hessian":[3.740801E2,1.335317E2,2.4054843E2,1.1909605E2,1.4435652E1,3.1776833E1,2.0877159E2,1.0326303E2,1.5833016E1,2.6798418E1,4.9784155E0,2.040175E2,4.7540965E0],"tree_param":{"num_deleted":"0","num_feature":"19","num_nodes":"13","size_leaf_vector":"1"}},{"base_weights":[1.1749847E-1,1.9568507E-1,-4.67977E-1,-4.3971676E-1,2.6809472E-1,-2.3691334E-2,-5.6587055E-2,-2.7951939E-2,-1.3777715E-2,1.6888753E-2,2.3513336E-3,-1.5765617E-2,3.2023318E-2],"categories":[],"categories_nodes":[],"categories_segments":[],"categories_sizes":[],"default_left":[0,0,1,0,0,0,0,0,0,0,0,0,0],"id":75,"left_children":[1,3,5,7,9,-1,11,-1,-1,-1,-1,-1,-1],"loss_changes":[2.0598019E1,1.8265373E1,2.054822E0,1.0132065E0,1.0049845E1,0E0,2.5732253E0,0E0,0E0,0E0,0E0,0E0,0E0],"parents":[2147483647,0,0,1,1,2,2,3,3,4,4,6,6],"right_children":[2,4,6,8,10,-1,12,-1,-1,-1,-1,-1,-1],"split_conditions":[2.5307E4,2.1E1,9E1,4E1,3.17E2,-2.3691334E-2,6.1E1,-2.7951939E-2,-1.3777715E-2,1.6888753E-2,2.3513336E-3,-1.5765617E-2,3.2023318E-2],"split_indices":[9,15,7,9,10,0,18,0,0,0,0,0,0],"split_type":[0,0,0,0,0,0,0,0,0,0,0,0,0],"sum_hessian":[4.5002408E2,3.9702304E2,5.3001034E1,4.0600178E1,3.5642285E2,4.307735E1,9.923684E0,1.354903E1,2.705115E1,2.1916092E2,1.3726193E2,7.1546364E0,2.7690477E0],"tree_param":{"num_deleted":"0","num_feature":"19","num_nodes":"13","size_leaf_vector":"1"}},{"base_weights":[-5.085935E-3,-3.707716E-1,4.066744E-1,-4.681488E-1,3.4664836E-2,2.008289E-1,6.721627E-1,-2.3666741E-2,-6.48689E-3,3.8311183E-3,3.4128807E-2,2.9924976E-2,1.9562593E-2],"categories":[],"categories_nodes":[],"categories_segments":[],"categories_sizes":[],"default_left":[0,0,0,0,0,0,1,0,0,0,0,0,0],"id":76,"left_children":[1,3,5,7,-1,9,11,-1,-1,-1,-1,-1,-1],"loss_changes":[5.8840034E1,2.4058737E1,1.0035053E1,5.6298714E0,0E0,6.9247036E0,6.263809E-1,0E0,0E0,0E0,0E0,0E0,0E0],"parents":[2147483647,0,0,1,1,2,2,3,3,5,5,6,6],"right_children":[2,4,6,8,-1,10,12,-1,-1,-1,-1,-1,-1],"split_conditions":[1.355E3,1E0,3.6978E4,1.266E2,3.4664836E-2,1E0,3E0,-2.3666741E-2,-6.48689E-3,3.8311183E-3,3.4128807E-2,2.9924976E-2,1.9562593E-2],"split_indices":[9,14,10,6,0,14,8,0,0,0,0,0,0],"split_type":[0,0,0,0,0,0,0,0,0,0,0,0,0],"sum_hessian":[3.9076697E2,2.069759E2,1.8379106E2,1.9137576E2,1.5600132E1,1.0354792E2,8.024314E1,1.4735443E2,4.4021343E1,8.774967E1,1.5798249E1,6.7690125E1,1.2553015E1],"tree_param":{"num_deleted":"0","num_feature":"19","num_nodes":"13","size_leaf_vector":"1"}},{"base_weights":[-1.4218558E-1,1.8849538E-1,-3.2826343E-1,4.323515E-1,-1.4097136E-1,-4.0601894E-1,4.0035638E-1,2.0637147E-2,-2.912354E-2,5.0461713E-2,-8.850176E-3,3.74938E-2,-1.8534541E-2,4.102437E-2,4.7095497E-3],"categories":[],"categories_nodes":[],"categories_segments":[],"categories_sizes":[],"default_left":[0,0,0,0,0,0,0,0,0,0,0,0,0,0,0],"id":77,"left_children":[1,3,5,7,9,11,13,-1,-1,-1,-1,-1,-1,-1,-1],"loss_changes":[2.38312E1,1.1205448E1,1.4041601E1,5.1901207E0,5.4814034E0,9.880333E0,3.9427047E0,0E0,0E0,0E0,0E0,0E0,0E0,0E0,0E0],"parents":[2147483647,0,0,1,1,2,2,3,3,4,4,5,5,6,6],"right_children":[2,4,6,8,10,12,14,-1,-1,-1,-1,-1,-1,-1,-1],"split_conditions":[7.8846157E-1,1.8E1,7.5E1,1E0,5E1,4.9E1,9.355693E-1,2.0637147E-2,-2.912354E-2,5.0461713E-2,-8.850176E-3,3.74938E-2,-1.8534541E-2,4.102437E-2,4.7095497E-3],"split_indices":[0,12,18,14,18,18,0,0,0,0,0,0,0,0,0],"split_type":[0,0,0,0,0,0,0,0,0,0,0,0,0,0,0],"sum_hessian":[3.872672E2,1.3943002E2,2.4783719E2,8.014238E1,5.9287643E1,2.2395279E2,2.3884396E1,7.624255E1,3.8998258E0,2.902489E0,5.6385155E1,5.722728E0,2.1823006E2,7.979073E0,1.5905322E1],"tree_param":{"num_deleted":"0","num_feature":"19","num_nodes":"15","size_leaf_vector":"1"}},{"base_weights":[7.783857E-2,1.7644633E-1,-3.8341108E-1,-3.855998E-1,2.3889513E-1,-5.685806E-1,-1.791497E-1,-2.5613707E-2,